9996 16
the -0.034368586 -0.03360704 0.027351039 -0.006015443 -0.047408327 -0.07299055 0.0386991 -0.065987214 0.032617122 -2.575462e-05 -0.06262761 -0.07966039 0.0022033337 0.006839339 -0.027410006 -0.0419278
and -0.054278784 0.033778347 -0.030759385 -0.050280996 0.0012834291 -0.021006634 -0.0100163855 -0.0141293015 0.000818856 0.033738587 -0.07891522 -0.0070124944 -0.023809036 0.029516533 0.018401355 -0.02560323
a -0.05238341 -0.022755025 0.04076706 0.0020618693 -0.042542998 -0.013923975 0.055879388 0.027855366 0.0148076555 -0.03724692 -0.005464263 -0.033666965 0.018346686 -0.042013574 -0.0262995 -0.021353308
of -0.068821125 -0.008794211 -0.042615864 0.0026691821 -0.038244054 -0.06585811 0.019579729 -0.0366128 -0.013916101 -0.016879782 -0.050900105 -0.14987476 -0.011982058 0.020561246 0.025990678 -0.036237646
to 0.026312895 0.017430466 -0.007203432 -0.014890447 -0.074780606 -0.08686508 -0.046031527 -0.0768764 0.08623128 -0.034934767 -0.008882512 -0.033591945 -0.018612279 -0.04715754 0.056540307 0.064999714
is 0.022936221 -0.013303095 -0.040046137 -0.0104098255 -0.03224616 -0.05600067 0.007236455 -0.021784754 0.0353537 -0.029095571 -0.033985663 0.020679452 0.009777187 -0.011123749 -0.031479865 -0.07502225
br -0.065933615 0.018519852 0.049535967 0.08534404 -0.10820903 -0.0673562 -0.0034747133 0.0055599534 0.065542765 0.003385482 -0.018624889 -0.033773646 0.021891795 -0.03700468 0.044101927 0.035898402
in 0.0049340404 0.019082446 -0.051663477 -0.05631539 -0.008677725 -0.014255119 0.039101217 -0.0425932 -0.0070779067 -0.0012384602 -0.1217202 -0.07900658 -0.034938976 -0.009791238 0.008987119 -0.020073675
it -0.024064424 -0.022281148 -0.0060205567 0.06303969 -0.050075866 -0.03563689 0.014365058 -0.07745694 0.06642314 0.02976545 -0.080210306 -0.032415513 0.012832525 0.022226471 -0.0067039574 0.057356514
i 0.040345527 0.021077858 0.006520426 0.060560387 -0.07880148 -0.051148158 -0.056696028 -0.107611395 0.10913762 -0.014089075 0.097489946 -0.06265967 0.022856725 -0.045024056 0.060597394 0.1283428
this -0.031074136 0.04300892 -0.0699909 0.02460789 -0.08727458 -0.0442641 -0.030508706 -0.090558276 0.07143059 0.024182199 -0.007213041 -0.11933643 0.008245226 -0.007962626 0.07640524 -0.0075832456
that 0.018217027 0.01640473 -0.10424931 -0.072215706 0.032505818 0.02669364 0.0459154 -0.063979976 -0.034215774 -0.002175293 -0.08673739 -0.10630833 -0.0047901277 -0.027441328 -0.0143079115 -0.0336976
was 0.0005835349 -0.032881554 -0.11181277 -0.004318349 -0.02915503 0.006972585 -0.015425252 -0.028533632 -0.0064297756 0.007819067 -0.027708897 -0.07571257 0.033952627 0.04148325 -0.03971861 -0.029367505
as 0.05591661 0.04141483 -0.09729527 -0.0040260535 -0.043870132 -0.04708855 -0.016971678 -0.033931103 0.017362045 0.03467341 -0.047795895 -0.06624137 -0.016711647 0.022602646 -0.04267922 0.016578997
for -0.047425147 0.050136704 -0.018176593 0.06362061 -0.005349899 -0.042671785 -0.00013842541 -0.069908634 0.07420084 -0.011289565 0.01924788 -0.062128518 0.0068491427 -0.01799318 0.010357181 0.0061967247
with 0.021499272 0.033586252 -0.008826511 -0.00290621 -0.04387866 -0.025812158 -0.09217618 -0.07826948 0.08832528 0.043610584 0.025851542 0.0015374019 -0.07002522 -0.08965063 0.033099603 0.039968576
movie 0.084247746 0.008290956 -0.035074346 0.02437294 -0.07394192 -0.0737305 -0.04891653 -0.03991315 0.056711007 0.036661904 0.0465121 -0.05654272 -0.052939467 -0.0305234 0.043346204 0.041980367
but -0.044027448 -0.04358461 0.059705198 -0.012934011 -0.05045493 -0.055739265 0.03277133 0.030635227 0.04207834 -0.023482438 0.0032836567 -0.016658006 0.029351944 -0.0074560135 -0.029635109 -0.028418375
film 0.043498326 0.037081257 -0.020076465 0.08415934 -0.06510319 -0.0643985 0.002289274 -0.02751543 0.013666705 0.00840233 0.006137546 -0.012635648 -0.023041232 -0.07791036 -0.012541931 0.07432419
on -0.012891853 0.010772009 -0.14373136 0.032107875 -0.018229466 -0.040568598 -0.016099485 -0.13671283 -0.009742809 0.024724059 -0.06526583 -0.08373248 0.0056106225 -0.060246892 0.023527833 -0.02579142
not 0.06197362 0.04551436 -0.048251674 -0.020918695 -0.050586328 -0.066679515 -0.022399247 -0.05189911 0.08369741 0.014648538 -0.012391859 -0.11166415 -0.027460057 -0.08119727 0.036518034 0.04596793
you 0.00413701 0.00029585653 -0.030667277 0.035094123 0.03831605 -0.01590852 0.03157271 -0.009613298 -0.027276106 -0.04587245 -0.034277625 0.007647077 0.005345626 0.009051429 0.008799665 0.06453015
are 0.056163616 -0.00535643 -0.065252446 0.022320725 -0.07907633 -0.09623764 -0.09314313 -0.0723649 0.059194587 0.024910951 -0.012350775 -0.019243473 -0.020800313 -0.05508787 -0.0033132043 0.0880659
his -0.0009960947 0.021992162 -0.012166254 -0.01946291 0.037186176 0.056862142 0.040849343 0.014846156 0.0006523913 -0.007149131 -0.12933603 -0.057283565 0.010302921 0.009404242 -0.09294162 -0.03144781
have -0.0011251637 0.0410654 0.07836943 0.060576465 -0.09701471 -0.07795816 -0.0102030765 -0.030609632 0.096049264 0.05888265 0.05154148 -0.022797314 0.015514335 -0.08594304 0.018873544 0.05326175
he 0.047867622 -0.009984105 0.055898353 0.050454985 -0.021995228 -0.027897052 -0.046443034 0.0017089667 0.05012077 -0.042340476 0.02030991 -0.018041614 -0.062259935 -0.045255724 0.046261102 0.009748215
be 0.0131906895 -0.0021613738 -0.08770304 -0.012205779 -0.027396891 -0.071045555 -0.068974175 -3.9240695e-05 0.046801098 0.005796958 -0.044602595 -0.066288374 -0.024325702 -0.022371408 -0.019237986 -0.036277324
one 0.034872733 -0.00523541 -0.02286146 0.027000124 0.0017868809 0.035404496 -0.030484172 -0.05402694 -0.0114506 0.009280326 -0.08321428 -0.08127827 0.033357184 -0.026865222 0.022066398 -0.013119672
all -0.0066849524 0.0067650396 0.024177354 -0.060227957 0.014056308 0.0040259357 0.007996922 0.006653654 -0.0016612567 -0.022275051 -0.04618632 -0.084816255 0.07755087 -0.00060125696 -0.04160994 -0.058811784
at 0.0028233186 0.052197862 -0.015142569 0.035486072 0.052012216 -0.087830685 -0.07617617 -0.02049402 0.046879377 0.019065984 -0.010343175 -0.10386163 0.0023686206 -0.062770024 -0.016806459 0.0043495116
by 0.047238927 -0.014826589 0.04483649 0.020263933 -0.06410234 0.006043395 -0.020622628 0.01508477 0.057912078 -0.008713109 0.06973993 0.09120812 -0.0018206697 -0.06581678 0.04882601 0.07618255
an 0.045550067 0.013988599 -0.098976076 0.02125629 -0.11108484 -0.01844118 -0.06826096 -9.509898e-05 -0.019268028 0.061399706 -0.0010548283 -0.09352714 -0.031323936 -0.022224944 -0.0047074333 0.03172002
they -0.014082866 -0.0167479 -0.0017967761 0.055466086 0.021360682 -0.05181567 -0.035314076 -0.032704838 0.07039488 -0.010298097 0.038151972 -0.08836353 -0.012674801 -0.0020460044 -0.020374626 0.010766695
who -0.028494317 0.00031869195 0.02344438 0.0080032665 0.009098381 0.030715337 0.03156563 0.0015158302 -0.0845665 -0.060369294 -0.050882928 0.03426954 0.010472086 0.027418597 -0.07118145 -0.013278956
so 0.060050294 0.05228678 -0.06693475 0.11641855 -0.041317403 -0.13390401 -0.055929914 -0.17025325 0.0950197 0.10197683 0.005694744 -0.103181176 -0.0817934 -0.15372013 0.08566777 0.04966118
from 0.026848564 0.038427915 -0.12198639 0.0053958 -0.075963244 0.0061589023 0.038733713 -0.046904474 0.0044454196 0.053433444 -0.04708515 -0.06022121 0.046543863 -0.015061031 0.016084723 0.003792946
like -0.05213122 0.007525414 0.074142955 0.01881103 0.011612306 0.061907087 0.036632027 0.09723095 -0.015682345 -0.059552707 0.010414855 -0.014328607 0.063550524 0.06816241 -0.010114456 -0.025092596
her -0.019966403 0.058907762 -0.02662176 0.007841901 0.040997583 -0.049836535 -0.040287085 0.006341126 0.0002500237 0.028812347 0.09052667 -0.023875741 -0.060411163 -0.0564428 0.06551501 0.10438165
or 0.051003132 0.046953615 -0.03647612 0.0144960005 -0.007422166 -0.103613205 -0.01957051 -0.09295706 0.0008954888 0.025549904 -0.032083232 -0.016306521 0.028913904 -0.023439439 0.042322837 0.025379159
just 0.051309545 0.07739164 -0.011741346 0.1511602 -0.09511101 -0.116522245 -0.0979671 -0.091965385 0.058486596 0.09753344 0.04389194 -0.039495535 -0.09369082 -0.049902417 0.084208824 0.09502039
about 0.043752946 0.012541266 0.06831066 0.061812088 0.025374183 -0.05333325 -0.02287663 -0.048137415 0.019853588 0.006652403 0.076969676 0.03922993 0.015551906 -0.031848248 0.04808967 0.11532484
it's 0.018746015 0.011217692 -0.081235774 0.0176532 -0.085737236 -0.0022945756 -0.041746505 -0.03324949 0.066297196 0.0018657974 -0.0020575495 -0.04212812 -0.014074942 -0.069031745 0.010519425 0.01511228
out 0.11469795 0.09180669 -0.008946881 0.18750064 -0.1385722 -0.12139413 -0.07037759 -0.1127126 0.098325245 0.13321632 0.03824675 -0.1368936 -0.12853587 -0.08580511 0.0978898 0.09974899
has 0.010915749 0.07843295 -0.008657564 0.09443009 -0.024586221 -0.028318278 -0.08137226 -0.066823795 0.0658305 0.06505075 0.011026024 -0.012108035 -0.03813976 -0.025090478 0.018197838 0.04926062
if 0.008933203 0.0408806 0.10352522 0.012173413 0.012004512 -0.050141893 -0.040031683 -0.0012755359 0.032953516 -0.03348035 0.011175919 -0.019074222 -0.014857132 -0.051293053 -0.038668633 0.060377266
some 0.04731984 0.12579383 -0.039877895 0.079525985 -0.12425481 -0.098231435 -0.10871817 -0.111188985 0.13614956 0.03357707 0.014531142 -0.093171746 -0.071887106 -0.091131255 0.12208025 0.028244646
there 0.048106343 0.035027523 -0.014118349 0.012976773 -0.060626958 -0.019880936 -0.10141235 -0.045083217 0.0885613 0.034322545 -0.011794758 -0.006556202 -0.040124293 -0.04625494 0.07934057 0.040908284
what -0.07362147 0.016215496 -0.01287092 -0.067654535 0.009154052 0.081583925 0.018970657 -0.036299493 -0.07797269 -0.042908844 -0.088488415 -0.02891337 0.04662116 0.087409 -0.01785628 -0.017822908
good 0.028343761 -0.04987454 -0.006646774 -0.0076834825 -0.07644898 0.04350323 0.045937605 -0.024689317 -0.01646709 0.0441887 -0.06566937 0.02821427 -0.008165435 0.021110896 -0.030924244 -0.098744676
more 0.0069049858 -0.0071273926 0.046564355 0.065737665 0.0132509535 -0.04422768 -0.026047042 0.04435371 0.015641034 0.011382329 0.019624682 -0.018778501 0.022585973 -0.019179082 -0.037081067 0.028785754
when -0.064064115 -0.045372065 0.023561466 -0.093722925 0.033496525 0.085685894 0.09314449 7.691438e-05 -0.08124802 -0.027048731 -0.053800795 -0.05080567 0.05577668 0.023343572 -0.08862763 -0.015924579
very 0.04329876 0.029264083 -0.027863493 0.00546929 -0.054620437 -0.012751047 0.02962876 -0.086656414 0.025166 0.0059938724 -0.09090911 -0.08102716 -0.03323303 -0.03183336 -0.026945563 -0.078955874
up -0.019140111 0.010573272 -0.0562785 0.0032719192 0.02788548 0.035869874 -0.026267037 -0.042716898 -0.01619729 -0.049654897 -0.024749799 -0.08655767 0.06761921 0.030402726 -0.022204524 0.0040745423
no 0.070276305 0.054252416 0.029227195 0.09629218 -0.14214632 -0.14290619 -0.06623826 -0.07368435 0.07834356 0.11093442 0.1263344 -0.0067865006 -0.05312143 -0.08537334 0.06438924 0.071482286
time 0.06404783 0.0544481 -0.04830408 0.11773957 -0.08321956 -0.052828673 -0.09878008 -0.025334269 0.060234446 0.08729308 0.114821695 -0.04569495 -0.11023113 -0.088693775 0.06924898 0.14171033
she -0.04204845 -0.094957694 -0.06551851 -0.1230825 0.079517186 0.057973158 0.024443695 -0.019017346 -0.09730441 -0.09088445 -0.07253289 -0.069215305 0.06803866 0.03019532 -0.09289398 -0.11489059
even -0.0020176643 0.022153702 -0.015597434 -0.004967768 -0.04260333 -0.00020350827 -0.05315421 0.023026604 -0.035380978 0.042931926 -0.036542114 0.032363907 -0.027475482 -0.02514396 0.050938394 -0.019491868
my -0.0062994855 -0.06330663 0.07381639 0.007665089 -0.037997548 0.0032682507 0.015713712 0.03502332 -0.0014981503 -0.069789246 -0.020035123 0.042762082 -0.015512753 0.055954527 0.0040279604 -0.041083526
would -0.026250308 -0.018903822 0.102233715 -0.029948847 -0.0079995105 0.046807863 0.045821782 0.0822781 -0.015609099 -0.07588633 -0.007828382 0.03467905 0.017890703 0.07459868 -0.009009189 -0.050374605
which 0.014667661 0.0044658035 -0.04641606 0.06330099 -0.036474742 -0.047849163 -0.05654751 -0.06261566 0.011544706 0.042273648 0.011721788 -0.03318097 -0.01364747 -0.035518907 0.023834938 -0.023139808
only 0.07298549 0.009420996 -0.033215486 0.08072128 -0.028293625 -0.08861937 -0.012103142 -0.09919327 0.071451165 0.06322822 0.05402576 -0.0192644 0.0045926734 -0.046072073 0.08150147 0.08192477
story 0.041045737 0.09035976 -0.019776795 0.10021896 -0.12354036 -0.07009744 -0.10460236 -0.04262328 0.0804589 0.07831408 0.050700188 -0.06337566 -0.059035715 -0.062154926 0.034667656 0.07878816
really 0.10552609 0.06432336 -0.043625064 0.09268135 -0.17394224 -0.08604294 -0.048836477 -0.037965905 0.019678932 0.07599615 0.04616096 -0.05804503 -0.07500029 -0.03861403 0.038500715 0.009645439
see -0.018907886 0.06361385 -0.034137983 0.057539903 0.016797794 0.011816953 -0.039399724 -0.067963675 -0.0029639103 -0.008902102 0.012000339 -0.09473078 0.0064259674 -0.035973858 0.034781583 0.0407753
their -0.010442153 -0.041166645 0.1147058 0.0055248616 0.008716847 0.055612482 0.11152803 0.09480289 -0.052355036 -0.10652971 -0.055573516 0.038169578 0.0050753765 0.06550913 -0.05020538 -0.011833316
had -0.018028075 0.008778015 0.06087309 0.09800306 -0.06861386 0.016721131 -0.029799478 0.074068435 0.094789974 0.012089802 0.037171885 0.04752947 -0.034709614 0.032583736 -0.021233214 -0.0016199532
can 0.022495553 -0.0017477226 0.019365195 0.015410272 -0.040246285 -0.08836987 -0.106761575 -0.04317899 0.025176384 0.040794868 0.039818235 -0.0023488128 0.018683163 -0.018582884 0.08706547 0.06743044
were 0.0090868175 -0.021410452 0.07454087 0.002485589 -0.068369865 0.056091454 0.004666211 0.00088806235 0.0511719 0.04027194 0.037768994 0.061160136 -0.0011418955 -0.023451293 0.02849216 -0.031763878
me 0.024577433 0.059583545 -0.0028645075 0.07944893 -0.10301196 -0.041878518 -0.07599253 -0.086206526 0.071727164 0.05876685 -0.04346222 -0.03375657 -0.02467186 -0.06968419 0.05308917 0.01725455
well -0.11394898 -0.12104831 0.03648078 -0.10770232 0.04382492 0.06695496 0.06961262 0.038205434 -0.065453514 -0.07310015 -0.10403534 0.018792354 0.07338646 0.1357011 -0.07915378 -0.053342797
than -0.03880386 0.0019888047 -0.019235168 -0.0061106933 0.010214789 0.034853626 0.016994203 -0.017775629 -0.024664098 0.005304221 -0.0770405 -0.042033885 0.00022296238 -0.0023648648 -0.05699667 -0.035225343
we -0.05898616 -0.047122784 0.04608554 -0.0361746 -0.014470676 0.02554352 -0.0059636994 0.09825108 -0.037233442 -0.013837033 0.0024247626 0.03987406 0.037586957 -0.003744571 -0.017704725 -0.0727946
much -0.01641677 -0.04548104 -0.019940142 0.03863422 -0.00011465931 -0.04075037 -0.03013971 0.023492815 0.037920237 -0.024295801 0.00043569572 0.02586209 0.0054635988 -0.043794073 -0.010402159 0.061038554
been 0.011309262 0.013461354 0.02503298 -0.013490513 -0.06561404 -0.012232976 0.010851216 0.08536996 -0.02961054 -0.010080117 -0.07403957 0.08068713 -0.017414827 0.037930604 -0.05071352 -0.024919868
bad 0.18152247 0.21516901 -0.13653173 0.24027851 -0.20841321 -0.19547781 -0.17200549 -0.13991982 0.16939881 0.20241322 0.17070056 -0.13051617 -0.2243146 -0.2584011 0.21300311 0.19972445
get 0.050863333 0.09287802 0.13647236 0.14361738 0.00189561 -0.06658914 -0.110296264 0.044611868 0.13027033 -0.03380819 0.10640175 0.043774605 0.005784677 -0.06864465 0.07468659 0.11326482
will -0.0032575135 0.03926037 -0.00038726916 0.033636667 -0.054023765 -0.07052895 -0.055517443 -0.06472848 -0.0067925453 -0.037205867 -0.035278734 0.02446195 0.047687974 -0.0002567706 0.023505561 0.054600675
do 0.04518473 -0.03782438 0.0784109 0.007735757 -0.038239297 -0.025357056 -0.049178746 0.04378665 0.071810044 0.04399177 0.009119667 0.054230843 -0.029197054 0.019960286 -0.028424863 0.05246845
also -0.01598192 0.0056731985 0.03657882 0.058769386 -0.018525243 -0.03153959 0.019845674 0.05118331 -0.011366884 -0.038315516 -0.0072912415 0.0006077088 -0.0004557565 -0.018450953 0.036830783 -0.026658138
into 0.0011398449 0.00064401113 -0.039856773 0.0026806172 -0.12266158 -0.044314843 0.017831156 0.037816945 0.06379879 0.01823636 0.009429045 -0.0069409613 -0.09425835 -0.006296583 -2.1560234e-05 0.027332518
people -0.015047549 -0.04118345 0.10238363 0.047855947 0.02851719 0.10010566 0.0008780533 0.10646964 0.041084446 -0.048584532 -0.034067046 0.033966247 0.013174377 0.07215794 -0.062328506 -0.020776087
other -0.014259795 0.037375893 -0.0737003 -0.037636247 0.072454914 -0.07683245 -0.04097127 -0.0529209 -0.017990552 -0.027337523 -0.0718059 -0.022465717 -0.014434948 0.012415838 -0.028619088 0.007892926
first -0.0058954936 -0.02453291 -0.03980052 -0.038882583 -0.042014755 -0.034350373 -0.0352415 0.007957212 -0.021151612 0.019384349 -0.0307114 -0.03242007 -0.012279633 -0.019518418 -0.07047664 -0.036039993
great -0.0011152275 -0.0064641177 -0.07764997 -0.07120043 -0.008374406 -0.021812046 0.026278729 0.01539618 -0.089249134 0.027599888 -0.1526144 -0.07121888 0.012885495 0.05597587 -0.031635907 -0.15527128
because 0.041273 0.06861585 0.04363044 0.047040552 -0.026731228 -0.046963055 -0.053450737 -0.052329242 0.107356414 0.03252437 0.05976956 -0.048314095 -0.073847 -0.051899698 0.08445449 0.11918806
how 0.069997475 0.025135556 -0.030243207 0.068270735 -0.044979714 -0.14190863 -0.09005782 -0.07345271 0.05399261 0.09924321 0.012721585 -0.09081147 -0.06769409 -0.13507959 0.10756624 0.07868168
him -0.052031077 -0.0559181 0.15242855 0.042501822 0.008777337 0.069595315 0.047059987 0.07376103 -0.016226668 0.013745067 -0.009458811 0.012177287 -0.006263741 0.06630404 0.020629216 0.030324014
most -0.039194994 -0.02686893 -0.006394201 0.014126629 -0.0024409737 0.01875973 -0.003393132 -0.010462436 -0.019973302 -0.04928378 -0.0664682 -0.06947165 0.016353162 0.066546366 -0.09436113 -0.065805554
don't 0.029138217 -0.01518707 0.059496835 0.1142716 -0.10126971 -0.0733465 -0.07168466 0.04643815 0.049724657 -0.061420046 0.11930443 0.022815209 -0.036260877 -0.09804529 0.037563924 0.1508082
made 0.00381101 0.044368345 0.027520724 0.056952167 -0.0750431 -0.09549895 -0.069366716 -0.058174696 0.043094244 0.016158324 0.018247947 -0.06199666 -0.06837826 -0.06365484 0.083835445 0.091839895
its -0.019435883 -0.0014591536 0.065199934 -0.010843614 -0.022486653 -0.034337983 -0.017770901 -0.0152502665 -0.011819016 -0.080347896 -0.055737138 -0.035407837 0.008151797 0.03265603 -0.06320894 -0.049767207
then -0.01611077 0.0034067126 0.00035686104 -0.055140477 0.07167487 -0.047357466 0.053499904 0.0372833 0.016247325 0.0025176092 -0.0050088596 0.0040011806 0.03528684 0.0525113 -0.024017738 0.029317223
way 0.060548715 0.050397035 -0.03258208 0.035281725 -0.049206838 -0.05280385 -0.06513708 -0.08196664 0.038726676 0.06545962 -0.012054992 -0.012367809 -0.04312341 2.1227323e-05 0.03048431 0.009819865
make 0.066091664 0.047112934 -0.10593907 0.03812828 -0.026615813 -0.0362003 -0.016287511 -0.07635549 -0.019444786 0.06949862 -0.0066339085 -0.10326229 -0.0033275196 -0.09262598 0.08618953 0.018519824
them -0.08332485 -0.0261872 0.050724484 -0.012633632 0.015609071 0.12400545 0.040367268 0.1117511 -0.08187438 -0.09852209 -0.08189066 0.027413752 0.08823534 0.037483506 -0.12413587 -0.056613483
too -0.016698018 -0.0848857 0.064274475 0.038885437 -0.04095759 0.017751055 0.06331065 0.044147886 0.024804037 -0.06438999 0.021221362 0.014978898 0.066806234 0.047335293 0.01501387 -0.002151148
could 0.06326945 -0.00250992 0.08508174 0.045855872 -0.09032761 -0.0005278627 -0.031757914 0.0028384086 0.06986254 0.005687342 0.022577763 0.040886365 0.0164038 -0.049054977 0.03316161 0.0055352366
any 0.0856185 0.122481674 -0.046963524 0.067202844 -0.11933798 -0.13661201 -0.04170997 -0.046541158 0.06937412 0.09229915 0.026381657 -0.040077616 -0.061428264 -0.090951696 0.06593408 0.11545664
movies 0.07438681 0.035869602 0.066223904 0.056568902 -0.09625057 -0.05601064 -0.03682887 0.010253282 0.01684605 0.01508501 -0.021658944 0.0350291 -0.0034181231 -0.03596563 0.050865024 0.041355837
after 0.039368063 -0.0047966526 0.03890485 -0.0031692176 -0.11553037 -0.053048637 -0.01582987 0.0070366682 0.03062062 0.02364233 0.032065656 0.028327271 -0.013534628 -0.0014132676 0.0074353437 0.004843006
think 0.048110615 0.058455452 0.07139364 0.07611874 -0.064371474 -0.007922272 -0.069020756 -0.0033072801 0.0039098123 -0.024864193 0.052799486 0.036687255 -0.078899875 0.004479289 0.06780561 0.0014738871
characters -0.07192508 -0.016686909 0.054811634 0.054605857 0.052496042 -0.025802959 0.032189865 0.028855747 -0.0066441367 -0.064226896 -0.04102416 0.051263582 -0.007049964 0.068550296 -0.008035911 -0.025982654
watch -0.011970153 -0.035022784 0.011201482 0.007316813 -0.06532421 -0.00037885818 0.025273161 -0.027014753 0.07369566 -0.027726324 0.025155079 0.02544445 -0.019731024 0.0048600757 0.027378721 0.025147617
two 0.05303429 0.05451338 0.09058073 0.07564291 -0.11569732 0.008139214 -0.041223343 0.06033649 0.089031555 0.049701832 0.106274344 0.0671034 -0.0017261284 -0.09790602 0.107369095 0.07045224
films -0.023117086 -0.020644052 -0.013684517 0.031023053 -0.022217432 -0.032399308 -0.029537994 -0.05365694 0.052129563 0.018212307 0.0149944285 -0.060596775 0.02681925 -0.02005681 -0.0117544085 0.009634034
character -0.052258868 0.008550079 -0.016428426 0.008842724 -0.03362601 -0.03601122 0.02932699 0.02552884 -0.054266274 0.0115696285 -0.064893514 0.015938323 -0.042302698 -0.04021347 -0.029679166 0.023897221
seen -0.014504881 -0.014079687 0.013074102 0.022529861 -0.020973573 0.030804109 -0.054942016 -0.003500809 0.032481164 0.01954286 -0.035024635 0.0294649 -0.045418058 0.0056556915 0.06805289 0.02870664
many 0.024661621 0.0137852095 0.06364736 -0.0114374375 0.034732368 0.016770797 -0.026680587 0.021713302 -0.04599982 -0.029081691 0.0122032035 0.014596217 0.050489683 0.060038596 -0.060380492 -0.0055857887
being 0.01160407 0.030091485 -0.04781191 -0.06695003 -0.07679001 -0.06231771 0.021275848 -0.06619473 0.029016454 0.078434944 -0.059115604 -0.119740404 0.01472326 -0.046666384 0.03009229 -0.06721727
life 0.017551344 -0.0028886567 0.027851889 0.05920761 0.0042378567 0.025956895 0.010942251 -0.020674035 -0.025104513 -0.036420904 -0.04169732 0.0101147825 0.035139643 -0.046805166 -0.041771635 0.06624018
plot 0.08875804 0.01457272 0.08002158 0.037975736 -0.029672414 -0.005714004 -0.060759805 0.018164042 0.03709994 0.088116705 0.09426007 0.009014643 -0.08144745 -0.034096412 0.032416023 0.13550761
never 0.03798029 0.028326958 -0.03513717 -0.0047997097 -0.0027031093 -0.01822901 -0.029552707 -0.06641457 0.05920253 0.012901146 -0.07238696 -0.063068725 -0.053170234 -0.08232252 -0.03277989 -0.07488213
acting 0.057903215 0.097578235 -0.061980586 0.100302145 -0.107369624 -0.12537882 -0.09393122 -0.038685437 0.0765468 0.0462714 0.0869244 0.026650216 -0.030954227 -0.11412923 0.06289477 0.087978445
little -0.05820546 -0.031486664 0.022642143 -0.06556797 0.030343257 0.07187462 0.08246579 0.02135013 -0.044803023 -0.12434236 -0.019326719 -0.011772141 0.0764272 0.08938986 -0.039950185 -0.023373172
best -0.083998196 -0.057054855 0.08918366 -0.14369492 0.063708045 0.07706938 0.04068994 0.07554318 -0.12098324 -0.066643596 -0.09422014 -0.009988228 0.046162415 0.0981375 -0.15435272 -0.06143442
love 0.011258835 0.0018919645 -0.12521352 -0.014161551 0.05902455 0.027562251 0.040545456 -0.029143471 -0.050531536 -0.022239557 -0.0973453 -0.15120563 0.012313025 0.048731968 -0.049083155 -0.020659056
over -0.03468727 -0.004649521 0.056704994 0.057547994 -0.009705664 -0.0113792075 -0.042532004 -0.0017701273 0.06951917 -0.050271846 0.06059893 -0.060841974 0.016117336 -0.048316758 0.028447146 0.02458355
where 0.08919071 0.104667865 0.035905648 0.056825597 -0.099123485 -0.08389832 -0.092179865 0.0024444335 0.07416078 0.08329111 0.09512305 0.07935297 -0.037634544 -0.082103916 0.044327497 0.037064902
did -0.06943005 -0.020843381 0.09491686 0.060921445 0.06337552 0.066169135 9.816681e-05 0.01368717 -0.03302629 -0.08090124 -0.009254897 0.07825937 0.07523526 0.008461363 -0.06912943 0.022172663
show -0.024392111 -0.02753988 0.051375367 -0.029389296 -0.045627397 0.10694322 0.04805324 0.038150117 0.020332705 -0.040906627 -0.015800804 0.012653986 0.03992515 0.024679117 -0.017704327 -0.08423115
know -0.049642492 0.0078051686 0.12881732 0.053588178 0.015656125 -0.012203386 -0.05265546 0.020984286 0.00083272747 -0.057678804 0.042320054 0.109957024 -0.0015944045 -0.039491158 -0.020950131 0.06312285
off 0.04583386 0.024285488 0.119649306 0.1070554 -0.15328065 -0.0953253 -0.080679156 -0.0074344855 0.09520985 -0.010247662 0.0781361 0.07537193 -0.017604733 -0.07491168 0.12173973 0.13202882
ever 0.08977057 0.017035093 0.06048399 0.12984766 -0.073429 -0.09816123 -0.053394865 -0.010421433 0.08476859 -0.013838402 0.00428158 0.02794803 -0.034169532 -0.08030752 0.05837315 0.05664851
does -0.01889069 -0.072581485 -0.009071275 -0.08611589 0.009093512 0.059240043 0.018992051 0.049499024 -0.009333447 -0.04646344 -0.11486602 -0.0494908 0.03632573 0.09378877 -0.02357223 -0.0863579
better -0.03648619 -0.033152666 0.020553648 -0.12209236 0.028867556 0.03318236 0.10756418 0.09180249 -0.07943456 -0.038878277 -0.11182836 -0.03353645 0.03501803 0.02841193 -0.039580896 -0.037396215
your 0.0045511313 0.07553465 -0.019799322 0.027187118 -0.028076595 -0.013235488 -0.027383307 -0.08723404 0.009677971 -0.029207181 0.039296705 -0.05764926 -0.037180908 -0.0015407912 0.044473946 0.0493293
end 0.02860767 -0.03307369 0.039667014 -0.003272243 0.028035088 -0.048382953 0.012767124 0.01806324 0.036287226 -0.013958972 -0.0055142734 0.012090348 0.034050018 0.0068323747 -0.04620413 0.007112627
still -0.08047141 -0.01818752 -0.069244795 -0.17387548 0.0267206 0.022565275 0.094145514 -0.03276213 -0.07901392 -0.018856 -0.1707957 -0.11746935 0.046709944 0.14346111 -0.10150492 -0.12821057
man -0.008564172 0.034272764 0.06814685 -0.0026430981 -0.029064452 -0.040502958 -0.020642204 0.015097128 -0.056487992 -0.022120737 0.0388303 0.035232984 0.060411096 -0.01118772 0.017779386 -0.028278159
here 0.09796355 0.073645875 -0.107407406 0.042794682 0.03583048 -0.08216352 -0.099354655 -0.10597375 0.029495202 0.09725293 0.008012932 -0.120174125 -0.09681471 -0.07829399 0.12069324 0.06624814
these -0.059925143 -0.058086723 -0.010866047 -0.077505685 -0.033302013 0.059365675 -0.004368723 0.021229254 -0.06011986 -0.07643907 -0.045604296 0.0302977 0.0034323076 0.0057603605 -0.10940877 -0.066994175
say 0.05634735 -0.021970306 -0.118214116 0.026574662 0.025067076 -0.06260386 -0.034166742 -0.063664965 0.048257392 0.05582669 -0.05420685 -0.12351346 -0.024098374 -0.04603495 0.036056545 -0.025860252
scene 0.02525836 0.083072655 -0.0013641808 0.06569192 -0.08718973 -0.013008798 0.012073159 -0.05282781 0.08267061 0.01882531 0.006665532 -0.042539675 -0.07472375 -0.080018476 -0.00827636 0.07857503
while 0.046131115 0.06307192 -0.005000155 0.082501546 -0.014587951 -0.038950667 -0.02499642 -0.0120510915 0.064268164 0.01435264 -0.008751855 -0.051957745 -0.023552762 -0.009048219 0.0062293224 0.07580223
why 0.079877675 0.05431007 0.024959363 0.0057390803 -0.08253224 -0.023025732 -0.01863427 -0.0036054985 0.0700927 -0.03294923 0.07062774 0.024225798 -0.06421081 -0.082407564 0.048338108 0.10435474
scenes 0.09364549 0.07808689 0.0069149127 -0.002006447 -0.050534435 -0.09549772 -0.04283483 -0.0895484 0.01730602 0.118731126 0.014552031 -0.01818409 -0.03339502 -0.09312674 0.06727223 0.06246052
go 0.025024628 0.064946584 -0.11830025 0.01887817 -0.03198419 -0.08657604 -0.079656124 -0.10557255 0.012461502 0.06739701 0.021898158 -0.06042327 -0.07304324 -0.054268092 0.010396527 0.060433876
such 0.016552303 0.016183734 0.025629466 0.058459636 0.006811948 -0.010121841 0.0024853807 -0.036555905 0.042253844 -0.022180967 -0.0011477339 0.03554383 0.02193489 -0.046333883 0.008449965 -0.011398618
something 0.057059135 0.05043495 -0.13910817 0.042340457 -0.07108249 -0.085036166 -0.046541575 -0.04064757 -0.012707789 0.023135824 0.0014756874 -0.06254727 -0.064032406 -0.029747095 -0.0008496688 -0.034523915
through -0.011423444 -0.04553778 0.05751964 0.04170421 0.02217151 0.016067253 0.040641077 -0.0012095475 0.01834995 -0.08543383 0.017249368 -0.093367256 0.009076477 -0.016847152 -0.011832772 0.016978176
should 0.017900342 0.03271734 0.043657918 0.07581023 0.00197557 -0.10475273 -0.054998733 -0.1001614 0.09896198 -0.0033611734 0.09718486 -0.009140955 0.031658217 -0.11585155 0.07394797 0.040149365
back 0.05920979 0.036678787 -0.10597847 -0.036634963 -0.07506605 -0.095771566 -0.077158585 -0.04949894 0.033148915 0.10987181 -0.08275203 -0.06358652 -0.05749558 -0.035565905 0.010643484 -0.020608557
i'm 0.14499944 0.09416279 -0.010812471 0.102513544 -0.13781127 -0.103050195 -0.083919406 -0.058300097 0.14091484 0.15248182 0.11871904 -0.049131993 -0.086791635 -0.10515159 0.113204256 0.11338106
real -0.07531387 -0.08413972 0.060178127 0.06628043 -0.03045966 -0.032189116 0.039251614 0.06260387 -0.016082495 -0.0418308 -0.012700463 0.00651888 0.027029471 0.085968666 -0.07233165 0.0060949745
those -0.013287714 0.020869061 -0.034682665 -0.06481554 0.049421817 -0.0037562626 -0.04970166 -0.012022784 -0.06579687 0.008794082 -0.02753143 -0.06466912 0.01942324 0.055156924 -0.06503263 -0.029967405
watching -0.02702306 -0.04819593 -0.0062989504 -0.035789367 0.010283107 -0.011971607 0.07737679 0.009683761 0.0017217492 -0.014899647 -0.1510029 -0.10116631 0.017669108 0.005630736 -0.040483493 -0.10509924
now -0.037733324 -0.073922195 0.08137942 -0.07485601 0.0071693216 0.081796825 0.07903303 0.08498428 -0.00032853737 -0.09606513 -0.034659505 0.023868224 0.0498216 0.07473459 -0.11017881 -0.031649806
though -0.07096124 -0.068951994 -0.015223283 -0.008523984 0.025015855 -0.011083227 0.056906737 -0.041549295 -0.047818102 0.03821005 -0.078822814 -0.024614405 0.07041731 0.03676114 -0.038318854 -0.040658966
doesn't 0.038455036 -0.034603536 0.08167869 -0.018404953 -0.05016509 -0.004803475 0.0010256009 0.034641847 0.017543603 0.06568762 -0.010790682 0.13591634 -0.037237603 0.015259719 -0.023679692 -0.0037419533
years -0.05779287 -0.065964274 -0.004671942 -0.025280965 0.014511043 0.004527077 0.014086556 0.041401554 -0.00809437 0.005873486 0.004137515 0.03346806 0.015464126 -0.024524936 0.007327643 -0.011826604
old 0.014649184 0.030542206 -0.029456688 -0.012069066 0.0029232437 -0.028451925 0.016824352 -0.08123128 -0.00011019816 0.056977477 0.005524044 0.04291125 -0.031019764 -0.01016993 0.009408915 -0.0027964585
thing 0.12646131 0.118044436 -0.0272378 0.101793505 -0.06277356 -0.091866456 -0.026937505 -0.10948673 0.06765967 0.031028079 0.0903752 -0.08722588 -0.116282 -0.049420662 0.100953475 0.11477509
actors 0.0137482975 -0.005159046 -0.067054585 0.021475438 -0.06690771 0.019561779 -0.030032028 -0.02997036 0.0033507093 -0.013725999 -0.029090978 0.038354833 -0.0071498603 0.031719893 0.0015800173 0.02994145
work 0.06963282 0.054690715 0.041303303 0.0705649 -0.053912543 -0.049238887 -0.033394754 -0.05165483 0.1241385 -0.006540662 0.03115087 -0.037737586 -0.05263768 -0.06938639 0.06395177 0.045187328
10 -0.109062724 -0.052073155 0.12471716 0.044634476 -0.037087545 -0.04714706 0.1533842 0.10553291 0.0003410877 -0.086245075 -0.2626579 0.11031678 0.11127777 0.05421681 -0.078007594 -0.039525986
before -0.034340102 0.019936057 0.10648716 0.10539548 -0.060138933 -0.08081196 -0.010784624 0.060654137 0.03569674 -0.055725984 0.07276817 0.031161292 -0.03407361 -0.061078362 0.05563672 0.09751416
another 0.05085047 -0.003292586 0.08000807 0.05539469 -0.06981099 -0.07344333 -0.08756116 0.027363818 0.059611507 0.01646825 0.11161624 0.06368691 -0.019642344 -0.083031304 0.052752536 0.081832245
didn't 0.047354516 0.047910325 -0.013852766 0.06810399 -0.04903165 -0.12899038 -0.041150205 -0.04482878 0.107009806 0.086914636 0.04581616 -0.009994366 -0.047096953 -0.1352425 0.06356351 0.13091667
new 0.018197538 -0.03146179 -0.08920137 -0.011893573 0.0003255184 0.021058017 -0.023257263 -0.06754159 -0.0205686 0.016611287 -0.08257132 -0.116544366 -0.035822768 0.00016226651 -0.07455354 -0.043147266
funny 0.021704571 0.058887005 0.0036035674 0.02084744 0.01187393 -0.038331833 -0.018750103 -0.06827874 0.06279125 0.014183406 0.03209726 -0.026912168 0.010679971 -0.053906277 0.028960412 0.075895526
nothing 0.06001128 0.04854846 -0.046234787 0.08280493 -0.047711425 -0.033627063 -0.086196706 -0.016965158 0.086774886 0.07427514 -0.031757686 -0.0468442 -0.04222519 -0.08696115 0.02015022 0.030568745
actually -0.0035682279 -0.034796506 0.0048231054 0.016963879 -0.065528385 -0.045776665 0.021624567 0.036135435 0.07034962 0.05882339 0.010653867 -0.030378843 -0.03509683 -0.06413218 0.020971125 0.059388895
makes -0.021930132 -0.040473316 0.08214736 -0.011486725 -0.032825187 0.03975096 0.00825889 0.08774076 -0.050417926 -0.034976594 -0.03499577 0.013138615 0.02862579 0.04470297 -0.058820914 -0.0010138247
director -0.0047138385 0.08966077 0.030454943 0.06320085 -0.05638972 -0.026433889 -0.04621545 -0.08632146 0.07829521 0.056797877 0.07039028 -0.08394916 0.012995819 -0.06809053 0.015051814 0.023410566
look 0.05037952 -0.010375962 -0.0584803 0.0078244805 -0.050009474 -0.06915683 -0.00545292 -0.035989527 -0.0248292 0.0040523713 -0.013325104 -0.04748329 0.017724868 -0.03695964 -0.029541297 0.007879159
find 0.10388683 0.13283469 -0.031639893 0.100514576 -0.03942519 -0.060098667 -0.050243665 -0.027663665 0.120409444 0.08565123 0.044064097 -0.09236628 -0.11212154 -0.05307654 0.11317092 0.08703195
going 0.009438681 -0.09197913 0.055101022 -0.012844185 -0.058962785 0.044864208 0.046598956 -0.008761333 0.0074393665 -0.027683498 -0.040945534 0.027592892 -0.038238045 -0.0023792654 0.027491221 0.038796302
few 0.03706582 0.03566527 0.088108905 0.07504018 -0.04213185 -0.03790294 -0.09791896 -0.019540366 0.08447792 -0.0022487585 0.115543656 0.04937568 -0.00078754785 -0.09947885 0.030915609 0.055876955
same -0.005388531 -0.013561038 0.019677714 0.06555519 -0.06873391 -0.054890085 0.006702748 -0.042554557 0.043257594 0.056344185 0.0013276956 -0.07020053 -0.037303485 0.0023617623 0.00040582605 -0.020840392
part 0.07202421 0.15044476 -0.11521168 0.10701963 -0.0028285692 -0.15899177 -0.14462969 -0.17229119 0.07389151 0.10796364 0.10008077 -0.13340107 -0.023673356 -0.15277368 0.1176811 0.04388035
again 0.024745887 0.00041243873 0.038964268 0.03965374 -0.040465 -0.00284977 -0.034857884 0.002725844 -0.0014845161 0.030578729 -0.047269348 0.028047124 -0.015988437 -0.021519568 -0.016093552 0.006548829
every -0.020343205 0.01684943 0.123549685 0.06232475 -0.071961164 0.045872428 0.010076639 0.08829878 -0.023179788 -0.00584817 -0.003205006 0.09489767 0.0096075 0.020497054 0.039736755 0.013703329
lot 0.014339404 -0.048139364 0.001216033 0.030541515 0.0020167974 -0.015125712 0.043661095 0.021755697 -0.06010368 -0.015805585 -0.04715597 0.08215447 0.030868713 -0.022817316 0.0012343477 0.03605089
cast -0.0057001775 0.024396194 0.09193888 0.031857282 -0.11770055 -0.0008942829 0.029036725 0.0031630108 0.106064186 0.039710727 0.02819912 0.05512568 -0.06922624 0.02642891 0.0061814804 0.036213227
us 0.028623544 0.058133487 -0.09285553 -0.062978275 0.03359585 -0.06333057 0.04513881 -0.050771236 -0.0022294894 -0.0045596994 -0.073436156 -0.09501784 0.007836364 0.030582482 0.010011631 -0.043859992
quite 0.075188234 0.05579893 -0.09993006 -0.0074756355 0.027596619 -0.026763365 -0.07089788 -0.13640216 0.060965188 0.0035564278 -0.0034582997 -0.14563021 -0.06006673 -0.10519656 0.002569095 -0.008280631
down 0.07324225 0.071903795 0.18092684 0.1550929 -0.14756766 0.054355077 -0.017356219 0.09587211 0.074655764 -0.04534174 0.10488304 0.09996612 -0.02125146 -0.06512434 0.039901733 0.052801784
want -0.010553227 0.025466848 0.1322834 0.06436638 -0.0178189 -0.037147816 -0.08292747 0.0077644344 0.02702232 -0.049874865 0.048846077 0.018917589 0.02682029 0.0033177068 -0.0029067316 0.022787465
world 0.10274765 0.03680675 0.021987606 0.030386698 -0.08076297 -0.09879931 -0.08227186 -0.040177487 0.09531936 0.10368057 0.045145966 -0.057048544 -0.044319622 -0.120435745 0.09260616 0.0743323
things 0.0719227 0.0767805 -0.16256842 0.05489405 -0.0248592 -0.11224648 -0.028753381 -0.12039954 0.029827252 0.0018224526 -0.014231681 -0.07937688 0.00086521497 -0.026903415 0.032143395 0.044214237
pretty -0.06984353 -0.012687217 0.011718574 -0.042696636 -0.06312757 0.044392083 0.012274699 0.007987856 -0.044934683 -0.011734588 -0.084771335 -0.0028465511 -0.04012086 -0.020693604 -0.014135856 -0.03783518
young -0.01973534 0.0034720686 -0.030181108 -0.019014426 -0.05019644 0.015591266 -0.0064805415 -0.0044406485 0.029542793 0.024864428 0.023355398 -0.022082428 -0.03633673 -0.06643869 0.04916945 0.04446952
seems 0.062781796 0.010999235 -0.09576619 -0.017811412 0.03943042 -0.0644259 -0.074227974 -0.036973465 0.050003305 0.046135265 -0.030235171 -0.025706084 -0.05313706 -0.031153321 -0.023164881 -0.006192596
around -0.01255505 -0.07181285 0.08828022 -0.0059697423 0.02826191 -0.013122635 0.032781035 0.033217184 0.006688301 -0.005231872 -0.064126715 -0.017762689 0.013321952 0.029013665 -0.054375887 -0.047563083
got -0.01307436 -0.077033125 0.096743256 -0.017024914 -0.007330727 0.054322086 0.03974656 0.07659847 -0.08042254 -0.03232917 -0.08158363 -0.034636255 0.054642767 0.08753124 -0.06802179 -0.01641027
horror 0.10038109 0.003187495 -0.04872707 -0.008696334 -0.124732316 -0.018583477 -0.060104363 -0.034758303 0.03925897 0.027134303 -0.017002046 -0.011886102 -0.07826833 -0.06657699 0.05229018 0.053037852
however -0.04766415 0.04947338 -0.06924015 -0.05879993 0.0819877 -0.041175015 0.0015571745 -0.0437476 -0.016297726 0.024138957 -0.0733575 -0.1058864 -0.012631715 -0.056824382 -0.022629816 -0.027338345
can't 0.0030059004 -0.0227603 -0.034238987 -0.09009908 -0.029046137 0.032695025 -0.012740345 0.034540024 0.009825356 -0.009288625 -0.052973796 -0.06291604 -0.0006137624 0.061719056 -0.041112963 -0.115533374
fact -0.025154032 -0.047153354 -0.0019745014 -0.027708853 0.057253927 0.017844832 -0.0020163208 0.04107876 -0.0043287184 -0.0024255328 -0.118274495 0.028728824 -0.0034662595 0.08008619 -0.05851504 -0.059416402
take -0.018446561 -0.0004578886 0.052465934 0.0014398708 0.0043077655 0.012317646 -0.014314914 0.023288976 0.05459197 -0.04325739 0.008924702 0.0245775 0.0076980577 0.04419506 0.033572804 0.062123705
big 0.026207678 0.025775095 -0.1474461 -0.09399219 -0.009307948 -0.08418232 -0.03167519 -0.05176631 -0.047406916 0.0765911 -0.04574645 -0.043645456 -0.021675544 -0.042637043 -0.021557702 -0.026297722
enough 0.078683645 0.09202301 -0.052301425 0.089572944 -0.05253334 -0.11054007 -0.07200748 -0.118545614 0.107153215 0.034457196 0.09965322 -0.032614283 -0.037526347 -0.11269048 0.12075523 0.083311774
long -0.016665714 0.039781608 -0.015085224 -0.04878711 0.03737077 -0.0627802 -0.047287896 -0.08953397 0.007059308 -0.0030903304 0.036784805 -0.027556786 -0.032803517 -0.04782465 0.036933802 0.022436596
thought -0.0043035503 -0.011643867 -0.0072205802 0.006990582 -0.049625386 -0.04411294 -0.041364994 0.03051593 -0.021823462 0.03423761 -0.03469662 -0.08600899 -0.019740133 0.0075055016 0.01602289 0.013785701
that's 0.03333057 -0.050020397 -0.038057856 -0.013067318 -0.0021567934 -0.029358538 0.02917826 0.0075829127 0.0032389131 0.026265953 -0.010236759 -0.0035663557 -0.023119003 0.0048124325 0.027060261 -0.0027641174
both -0.06527418 -0.062420778 -0.09167964 -0.11725707 0.044136293 0.0006941295 0.027710622 0.05234911 -0.06863535 -0.00026158793 -0.09127627 -0.1026315 -0.0006031686 0.044654474 -0.12812522 -0.11040795
between 0.00095895666 -0.02194654 0.00648209 -0.02581111 0.012872202 -0.054979637 -0.019799821 -0.02499755 -0.008440639 0.0067647984 0.015080751 -0.0028004553 0.009835043 0.05051 -0.072853595 -0.056258205
series 0.022032274 0.042838193 -0.027434489 -0.05341552 0.025889877 -0.04958159 -0.018774953 0.012358308 -0.04591106 -0.0038458563 -0.03204458 -0.021355325 0.030008053 0.051038302 -0.022910796 0.0021369634
give -0.07659948 -0.06790823 0.16451748 -0.012726432 -0.0738816 0.058273856 0.036908537 0.0716652 0.0006326684 -0.05507306 0.012597557 0.07766775 -0.0156216575 0.07715872 0.035835754 -0.02518183
may -0.010527497 -0.039650455 -0.016519904 -0.012908082 -0.008618211 -0.011093449 -0.027300805 -0.06730839 0.02427136 -0.019991282 -0.03011066 -0.007881645 -0.018017806 -0.032568533 0.03603988 -0.038025264
original 0.010870564 0.042649966 -0.023900647 0.049529534 -0.02334873 -0.037281875 0.027568974 0.016603988 0.019918159 0.014831565 -0.062615275 -0.00050881994 -0.026286509 0.0043167053 0.03973039 -0.036325138
own -0.038850673 0.014475547 -0.051337548 0.014431094 -0.047954973 0.019316927 0.030308867 -0.09929482 0.014007861 -0.010263672 -0.03888551 -0.0073949276 -0.0023295938 -0.005538785 -0.02045854 0.029933682
action 0.027783038 0.08100182 0.0051983884 0.0951596 0.025163956 -0.10973242 -0.020867346 -0.078967385 0.022432487 0.04600356 0.069827385 0.02536855 -0.022696342 -0.030966904 0.01766949 0.024567045
i've 0.022725249 -0.03518361 -0.012063786 0.018058706 -0.013544867 -0.04052643 -0.019581985 -0.0072356397 0.025014505 -0.05752332 0.015321301 0.0038733878 0.03333508 -0.061544664 0.017509624 0.058548294
right -0.053543 -0.07110325 0.020126719 0.035157476 0.01698547 0.025077011 0.009836257 0.09038982 0.035423025 -0.047921613 -0.0023230903 -0.0016104205 0.02521488 0.057127967 0.013506567 0.011170168
without -0.04758633 0.02245308 -0.071466826 -0.091508545 0.031136231 -0.015221056 0.04975064 -0.05735831 -0.10428252 0.025201729 -0.1662083 -0.075640626 0.035876915 0.031538233 -0.081089325 -0.1344508
always -0.012581297 -0.021569962 0.020786429 -0.0685717 0.0050453455 0.07910814 0.063098095 0.0406065 -0.037325215 -0.07543818 -0.020590084 -0.059652522 0.0199072 0.038414303 -0.088799246 -0.094883546
times -0.03316491 -0.00107197 -0.06003802 -0.012119469 0.0029752976 -0.031310458 -0.023340968 -0.0571927 -0.030081404 -0.018242754 -0.026402399 -0.028221106 0.0021503905 -0.03208634 0.008629845 -0.044250727
comedy 0.09333063 0.07791841 -0.15361647 0.088399634 -0.04175435 -0.15556763 -0.119541846 -0.08781129 0.14870013 0.14832918 -0.042701215 -0.04840758 -0.14890084 -0.08816917 0.076001436 0.022954615
point 0.116057135 0.053451832 0.017319165 0.12901759 -0.050895404 -0.10084158 -0.13826084 -0.109578684 0.11636718 0.05453628 0.1336052 -0.06056252 -0.04901815 -0.16959603 0.10900116 0.15206692
gets -0.05177214 0.004449129 0.028587792 -0.026551532 -0.06316838 0.05054997 0.05637921 0.04673601 -0.020286903 -0.018601969 0.04655876 0.036082514 0.0033732723 -0.026255595 -0.053987212 -0.029000716
must -0.082372464 -0.08708194 0.112278335 0.041395415 -0.021204649 0.08812493 0.08577973 0.042747363 -0.017730648 -0.030836515 -0.07411325 0.03540535 -0.0148003185 0.014262953 -0.012164941 0.018473944
come 0.037779585 0.030986387 -0.109595254 -0.02047908 0.0126183955 -0.05888147 -0.024827173 -0.07304137 -0.003925561 -0.023639627 -0.060228966 -0.025377762 0.03999469 -0.035137367 0.030835746 -0.081149906
role 0.13181873 0.055275213 0.03400283 0.11713546 -0.017243078 -0.15031336 -0.12679292 -0.13617176 0.09466111 0.024923682 0.055949524 -0.111475036 -0.028297912 -0.099712774 0.07789929 0.05107361
isn't -0.023853684 0.018302158 -0.06100675 0.00066320784 -0.1136513 -0.022230506 -0.02113077 0.005168432 0.043420818 0.089112274 -0.055205524 -0.009789708 -0.019667987 0.024250941 -0.03893205 -0.040437296
saw -0.08830608 -0.044020582 0.08122499 0.011382465 0.0043206112 0.10301526 0.11791701 0.12818046 -0.013016522 -0.07029229 -0.04063182 0.1431012 -7.6088356e-05 0.11757717 -0.019631322 -0.0582308
almost -0.019635824 0.032490477 -0.08221832 -0.037853803 0.019345466 0.018722352 0.018432746 -0.051002067 -0.022735754 0.06695576 -0.09679413 -0.100924 0.03245201 0.041851897 -0.004386192 -0.058893535
interesting -0.008601407 0.042685382 -0.09169694 0.01936438 0.0037282486 -0.045428175 -0.046116762 -0.037725914 0.059896756 0.03575986 -0.035390887 -0.04083378 -0.018738506 -0.024291128 0.062067524 -0.017433284
least 0.039954152 0.07453926 -0.12060956 0.054106362 -0.008835771 -0.063087404 -0.07696606 -0.13390712 0.05577429 0.085941635 0.031057658 -0.04610085 -0.0045768516 -0.09078113 0.062166892 0.012475915
family -0.044318203 0.025005419 -0.14061412 -0.01938188 0.041171636 0.010750169 -0.013975244 -0.111259945 -0.07225864 0.022393307 -0.102970995 -0.08447814 0.010455705 0.016053645 -0.07897892 0.0068067573
done 0.065315485 0.08708082 -0.12723887 -0.058568854 -0.013316118 -0.0013650467 -0.07224037 -0.031700686 0.040901393 0.057361085 -0.040394735 -0.03286539 0.043832585 -0.040554218 0.0056213127 -0.04885825
there's 0.054737207 0.020496244 -0.0024065315 0.054172873 0.0003333541 -0.05767032 -0.05648655 0.018678935 0.01467126 0.017446913 -0.0015772573 -0.023557948 0.0116116945 0.0019996886 0.067651995 0.03763376
whole -0.04774719 -0.04570168 -0.005452467 -0.05627672 -0.03650119 0.029574694 0.03304372 0.071700595 -0.047786225 0.039150815 -0.059617046 0.042971417 0.03578646 0.06318377 -0.007362923 -0.03218775
bit 0.029052483 0.09526851 -0.11875342 0.06111777 0.014500606 -0.14802742 -0.058479317 -0.13258438 0.045436516 0.070554234 0.024137976 -0.09774758 -0.01173718 -0.076855235 0.08774304 0.059170727
music -0.13294415 -0.09549885 0.030364288 -0.12749155 0.051782437 0.13882606 0.13397287 0.072173975 -0.15465075 -0.09764975 -0.11923464 -0.027160177 0.08661112 0.12994725 -0.1521079 -0.13944109
script 0.011503215 0.019588014 0.15693972 0.070979424 -0.07378223 0.0025433882 -0.019460915 0.048732217 0.024539962 0.02314417 0.05543249 0.07141681 0.022639671 -0.021131888 0.015389228 0.028021269
far -0.0025662042 0.024124188 -0.03565807 0.004685222 0.0039227284 -0.004866715 -0.010628389 -0.12255759 -0.0074031902 -0.039960817 -0.01260999 -0.026012802 0.020659102 -0.054567114 0.031981815 0.008453226
making 0.019354174 0.04851205 0.10976211 0.068738475 -0.07729538 0.029762179 -0.041114155 0.054984044 0.08961241 -0.014282113 0.061578866 -0.018575046 -0.0027851018 -0.02429323 -0.0165144 0.0013300733
guy 0.018459113 0.0137806395 0.13121852 0.057686456 0.05961322 0.01208537 0.042710774 0.08878822 0.0016399011 -0.04142844 0.09804869 0.062412452 -0.033803966 0.029529681 0.0048585916 0.1237608
anything 0.1238778 0.13132675 0.013291443 0.13576268 -0.09856828 -0.07723938 -0.13488299 -0.039664246 0.12530059 0.13339931 0.053076133 -0.031607233 -0.1039434 -0.0748157 0.14250287 0.12814459
minutes 0.071434245 0.11766733 -0.08164795 0.050937284 -0.04994719 -0.1257227 -0.087051705 -0.03748443 0.07372632 0.025478324 0.015470866 -0.041973773 -0.106122814 -0.11163761 0.117142506 0.14301527
feel -0.035482097 0.027773062 -0.12226311 -0.028944016 0.0073310835 -0.007729567 0.016294397 -0.094976574 0.0003581501 0.019706128 -0.0825002 -0.09479061 -0.03229212 -0.059243213 0.02068734 -0.034136143
last 0.008271688 0.07167714 -0.031020526 0.115831494 -0.027319178 -0.05509447 -0.039026003 -0.069736145 0.06610331 0.08023381 0.1118804 0.051053133 -0.0873508 -0.050594833 0.05003784 0.1327174
since -0.053503443 -0.09274053 0.060829766 -0.058013227 -0.019237509 0.054606955 0.09487231 0.04958199 -0.049725752 -0.059508488 0.0013452062 0.012717675 -0.005361498 0.062105164 -0.09193039 -0.043746524
might -0.051850263 0.00078655215 0.032112107 0.006817275 -0.022121781 0.037603974 -0.015003505 -0.013838028 -0.041419044 -0.00026821744 -0.0008276451 -0.05941275 0.01759802 0.0046252003 -0.017760891 -0.0071840547
performance 0.0307474 0.027252048 -0.028662546 0.06266979 0.012591228 0.042228725 0.03771083 0.019732527 0.054799803 0.064638935 0.029413989 -0.012960289 -0.011933418 0.03186628 0.02422518 0.041023053
he's 0.017040934 -0.03591699 0.11547539 0.09680848 -0.02588486 -0.00420334 0.050911076 0.008566629 0.009886666 -0.012062319 0.0731848 -0.04890771 -0.05440497 0.029341212 0.062380068 0.04543869
2 0.15388605 0.1322592 0.038342867 0.1250168 -0.069815405 -0.1089926 -0.121752456 0.016220007 0.16881107 0.063040584 0.16230653 0.0059081046 -0.07322653 -0.18090324 0.15641358 0.1445151
probably 0.08573462 0.096856155 -0.0860138 -0.025069067 -0.064364955 -0.040088627 -0.011791009 -0.1230753 -0.0042403997 0.024338698 -0.016168015 -0.07471511 0.0016248 -0.09276387 0.039402265 0.0054755644
kind 0.04019471 0.09498318 0.10973477 0.10694632 -0.08468021 -0.047823936 -0.07573368 -0.04691002 0.07263029 0.093959056 0.13206811 0.00096190005 -0.05822603 -0.042361397 0.10997727 0.12342926
am 0.003873993 -0.025484482 0.0674931 -0.053983532 0.03524567 0.011721949 0.06304552 0.08584676 -0.05401191 -0.027357953 0.0031761602 0.044453107 0.009086839 0.023166742 -0.059004292 -0.0028918483
away 0.012845855 0.07521148 0.022703486 0.05276449 -0.11203491 -0.005128931 -0.06325057 0.032796938 0.08272899 0.084666446 0.048615742 -0.023254894 -0.063034676 -0.07946561 0.07861042 0.0009946807
yet 0.02285467 0.001365741 -0.053466246 -0.051423043 0.003368944 0.0039115767 0.022871722 -0.027709672 0.008806589 0.05451238 -0.097936474 -0.107348844 -0.06559097 0.040747955 -0.019827241 -0.055174757
rather -0.059402607 -0.11536305 0.06003906 -0.122230954 0.06581026 0.083590835 0.14829223 0.12191902 -0.0655191 -0.04022387 -0.08764024 0.011964292 0.03403261 0.12693755 -0.13865691 -0.1125944
tv 0.03956893 0.025504263 0.036174394 -0.017216338 0.016235823 0.0015509493 -0.0010321201 -0.007771666 0.0012129847 -0.05554858 0.025967367 0.0098226005 -0.036403142 -0.009849267 -0.022103814 0.008303173
worst 0.26411146 0.17803037 -0.06874718 0.28748778 -0.19551936 -0.15816624 -0.16332304 -0.14108035 0.18341322 0.25487402 0.19327414 -0.19025938 -0.24116826 -0.2750976 0.21008062 0.26957142
girl -0.015369791 -0.0129093155 0.044112872 -0.032887775 -0.06447352 0.06565451 -0.012403374 0.10484685 0.052010268 -0.02320869 0.015329664 0.07024518 0.04016813 0.052388556 0.009105222 -0.01650137
day 0.0026591858 -0.010534881 0.01620017 0.008076494 -0.048990324 0.058487616 0.01789613 0.060490888 -0.042693205 0.0027010313 -0.037318576 0.008293835 0.082453445 0.034366895 -0.05078127 -0.08493111
sure -0.0025937024 -7.858759e-05 0.027958881 -0.045254145 0.0013780353 0.0632146 0.09444307 0.010996881 -0.02109561 -0.029609788 -0.015846368 0.0570168 0.05379232 0.02477799 -0.10187166 -0.0607448
fun -0.016568081 -0.010676472 -0.062085193 0.021625556 -0.014580788 -0.02132366 -0.047605917 -0.088763915 0.018361228 0.011808447 -0.06506034 -0.08346546 0.017851293 -0.024707865 0.014975374 -0.047614526
hard -0.009762898 0.07192226 -0.08183602 -0.014077629 -0.010815731 -0.038070053 -0.03927752 -0.09771363 0.061411403 0.045291375 0.02194077 -0.075109966 -0.015934955 -0.051886376 0.08372658 0.041750226
woman -0.029631631 -0.03534255 -0.09297166 -0.062435564 -0.04819765 0.020393532 0.046420246 -0.01973615 0.010342101 0.010587499 -0.050911274 -0.033150427 0.033582233 -0.00014101795 -0.0021113935 -0.065863185
played 0.007022009 -0.05956109 -0.04488009 -0.015052294 -0.027682312 0.006180176 -0.02590951 0.061961908 0.0016349728 -0.0484886 -0.035667323 0.011461107 -0.014338017 0.053189456 0.034861945 0.0032447006
each -0.023943637 -0.026327958 -0.04668187 -0.07877456 0.036173046 -0.070544794 0.010749731 -0.05005388 -0.044166565 0.016832003 -0.012342724 -0.112949826 0.014501673 0.049563266 -0.015726026 -0.06573036
found 0.095682494 0.0902444 -0.058764543 -0.019085295 -0.10031186 -0.065427504 -0.100978374 -0.102731496 0.07790428 0.069533154 0.019483695 0.0026399686 -0.09077239 -0.083952904 0.056383897 0.04230838
anyone 0.034737855 0.025144733 0.015147203 0.015606527 -0.03659958 -0.053546216 -0.03642378 -0.012582588 -0.031955622 -0.053285662 0.038817123 0.053710602 -0.017769733 -0.029791081 0.021157809 -0.013708194
having -0.020493511 -0.05294986 -0.087803796 -0.03480188 -0.04325844 -0.0052852575 -0.013121302 -0.019774392 -0.009738898 -0.010084077 -0.014163106 -0.009937498 0.065945394 0.053247355 -0.09262975 -0.062419284
although 0.07589204 0.03237606 0.12669341 0.035494864 0.011769995 0.014386316 -0.034159537 0.06481086 0.053397037 0.008873807 0.09644718 0.08623822 -0.018976415 -0.053677406 0.08580118 0.07501174
especially 0.009368472 0.06677124 -0.08634099 -0.008415338 0.04837061 -0.043080933 -0.04449512 -0.0037068035 -0.0466169 0.06245433 -0.07872109 -0.10005477 -0.03662996 -0.02824056 -0.03649488 0.0105458
our -0.085256696 -0.0354186 0.039818637 -0.09951485 0.049879972 0.010374511 0.028993811 -0.0042448966 -0.08520669 -0.025572198 -0.05911538 0.02026107 -0.0065066903 0.03262966 -0.079355046 -0.07751969
believe -0.0046725385 0.014328161 -0.091986194 0.026162134 -0.09596151 -0.045026988 0.027116653 -0.033875443 -0.019282002 0.03504569 -0.037205584 -0.0041207485 -0.0062151593 -0.00808874 0.021852475 -0.016237022
course -0.061281774 -0.020209791 0.028576948 -0.02720287 0.08301758 0.077213734 0.015549478 0.027074648 -0.07137265 -0.099600405 -0.10105924 -0.08558323 0.067158766 0.04841451 -0.025770294 -0.024723923
comes -0.0027565248 0.04837316 0.018272052 0.03494723 -0.018663332 -0.069518454 -0.006820431 -0.021860002 0.037012834 0.062465202 -0.05440199 -0.03387773 -0.04110391 -0.06345739 0.046864375 -0.017290875
looking -0.06594913 -0.0045945947 -0.031547084 -0.004313073 0.057320923 0.059678435 0.07561234 0.009248375 -0.039945934 -0.05683856 -0.02443966 -0.009766582 -0.019907698 0.047197875 -0.057522807 -0.08989838
screen -0.010954685 -0.030233888 0.056881737 0.009477209 -0.014810587 -0.026394274 0.084853716 0.069762096 0.0014061395 0.01155732 -0.039226487 0.052914515 -0.017000997 0.006107614 0.010559762 -0.07025935
trying 0.0036641336 -0.018631252 -0.05757892 -0.035385974 0.025949981 0.009027219 0.07728859 0.032322846 -0.07662063 -0.0477548 -0.037294466 0.06654282 0.03401308 0.052665386 -0.078502975 -0.07907975
set -0.039867237 -0.03301848 0.08322727 -0.017013948 -0.040646374 -0.010507298 0.07868881 0.043591194 -0.051770035 -0.049628496 -0.010172972 0.12822418 0.050477523 0.022435604 -0.067551866 -0.034103815
goes -0.08504731 -0.110967405 -0.05254553 -0.14677532 0.12438058 -0.0020563824 0.111574024 -0.016138507 -0.15962787 -0.018905457 -0.1658415 -0.0427456 0.05913979 0.08939019 -0.08431045 -0.08604623
looks -0.049498163 -0.015142047 0.108738355 0.05783434 -0.03632374 0.004397065 0.054539625 0.09794324 0.028392995 0.00703556 0.022885485 0.07467674 0.012478736 -0.032120947 0.04054576 0.050787084
place -0.061366 -0.13856596 0.03882439 -0.058497727 0.057285324 0.05989945 0.10206202 0.11667203 -0.043418903 -0.041944586 -0.05791953 0.024435796 0.03375968 0.10859587 -0.13155532 -0.053681016
book 0.025916368 -0.010744414 0.057771645 0.018369554 -0.06699269 0.060012836 0.075317115 0.055306554 0.056614906 0.027601808 -0.08193435 0.022461327 0.016675755 0.052889172 0.005321176 -0.0064827334
different -0.016480353 0.0031760545 -0.076734416 -0.07432325 -0.015563831 0.063887715 0.08049056 -0.027739773 -0.034961153 0.04382505 -0.10941699 -0.09125553 0.02145764 0.041517373 -0.054423768 -0.103419624
put -0.01718977 -0.09019853 -0.09048045 -0.02234358 0.008986509 0.0483211 0.045307424 -0.012036029 -0.10945334 -0.01236305 -0.111136675 0.013447007 0.04982659 0.067998946 -0.04670841 -0.044309627
ending 0.035043567 0.012376323 0.024882425 0.045284074 -0.0070962454 -0.06911215 -0.062385798 -0.06794373 -0.016284563 -0.029070301 -0.04198322 -0.041330427 0.06037592 0.022565058 0.015604035 0.047528766
money 0.07503653 0.07477626 -0.044912927 0.10011781 -0.104738146 -0.09869718 -0.09545897 -0.07642134 0.11707501 0.119299464 0.08892454 -0.03798599 -0.07916187 -0.13794023 0.075514644 0.061225057
maybe -0.040823206 -0.022837022 0.033337925 0.040755842 -0.0101349335 0.038610905 -0.017979551 0.07497466 0.0060139447 -0.04282644 -0.0043350477 0.020657625 -0.051635716 0.028091893 0.028405566 0.030336633
once -0.11006922 -0.1723465 -0.005864719 -0.15959421 0.13727091 0.13749652 0.07525846 0.039669566 -0.08736925 -0.12670237 -0.19039235 0.009714788 0.06029454 0.16408189 -0.18906984 -0.11537418
sense 0.0062230113 0.047048822 -0.08344127 -0.01807298 -0.023082739 -0.07164777 -0.046787266 -0.026587088 0.03141376 -0.0065814126 0.016685087 -0.032987498 -0.00036450083 0.010012524 0.025879512 -0.0023036813
reason 0.07835032 0.04078446 -0.05765573 0.15597464 -0.1319304 -0.11824439 -0.08914821 -0.0124547705 0.13772799 0.03313249 0.12983742 -0.007543663 -0.12768224 -0.10153178 0.07368605 0.12434173
true 0.050201252 0.06871219 -0.06599231 0.06080587 -0.09238885 -0.03275174 -0.11683692 -0.086427085 0.035796076 0.059307765 0.046822827 -0.081551164 -0.10797535 -0.09707539 0.08758366 0.067147754
actor -0.07758779 -0.023600085 -0.045058396 -0.08442696 0.024940217 0.0692225 -0.003561891 -0.019403018 -0.040714864 -0.024599217 -0.08693909 -0.074005075 0.07566858 0.05902332 -0.08021371 -0.0451466
everything 0.051742308 0.019552685 0.039261967 0.044337504 -0.02201937 0.017532466 -0.050257567 -0.02980591 0.07097743 -0.01364159 -0.0008584419 -0.038829044 -0.037821632 0.020924108 -0.024542077 0.05488308
wasn't 0.13882637 0.13398646 -0.06846247 0.1838634 -0.16571774 -0.17908026 -0.14571306 -0.13537836 0.16742405 0.16699424 0.18171006 -0.090016946 -0.19692208 -0.22522694 0.20297977 0.17690998
shows 0.048086386 0.05225725 -0.012407233 0.018166998 -0.004716553 -0.039252408 -0.052220892 -0.06641561 0.009017327 -0.008992512 0.0150319245 0.048161633 -0.042761046 0.0033353935 0.0012410223 0.02033114
dvd 0.014296378 0.007829412 -0.018939994 -0.025886135 -0.0026106455 0.014492475 0.047744516 0.00555881 -0.002809135 -0.007814861 -0.023860993 -0.029245492 0.03490845 0.08485704 -0.05012319 -0.0811863
three -0.009897958 -0.001900058 -0.004695143 0.021721011 0.020899773 -0.038284957 0.0045438455 -0.012029381 0.017572353 -0.03998876 0.053714205 0.011225993 0.007673889 -0.024410656 -0.043919697 0.0021279915
worth -0.09320153 -0.107054286 0.10654328 -0.0546347 -0.026025992 0.07052426 0.102467895 0.13852452 -0.074284405 -0.05055186 -0.0636688 -0.0456448 0.07276218 0.11626152 -0.12595984 -0.04634583
year 0.03321532 0.02549577 0.019092515 0.07210495 -0.0018269375 -0.06861493 -0.056145005 0.030719798 0.05253975 -0.026452126 -0.011948575 0.07076384 0.011521996 0.032454364 -0.010910689 0.022436736
job 0.038840525 0.006529083 -0.059099603 0.09745159 -0.0828832 -0.021096956 -0.031759072 -0.0022270016 0.0502155 -0.0068299756 -0.019427165 -0.05321692 -0.051143307 0.005198179 -0.0018751323 -0.02661338
main 0.0044078906 -0.02671568 0.18665028 0.1089483 -0.07146646 0.022446183 -0.025628794 0.07629353 0.0374066 -0.07914218 0.14361607 0.10689848 0.03220564 -0.0027670048 0.10985503 0.14391458
someone 0.16101596 0.1449742 -0.06226624 0.14368138 -0.14893253 -0.13411592 -0.13885763 -0.084586725 0.19422862 0.11826849 0.17663755 -0.08377283 -0.12895422 -0.1598291 0.16434214 0.20448555
together 0.021048551 0.037015382 -0.00075295195 0.019248687 0.016754882 -0.014251525 -0.00441518 0.006707431 -0.010992082 0.026478272 0.03442999 0.04247478 -0.02648587 0.011070034 0.027973626 0.0023185303
watched 0.03888878 -0.031212976 -0.069804125 -0.010758217 -0.04843631 0.027527288 0.054981012 -0.040171724 -0.06452059 0.05930409 -0.12220131 0.005384341 -0.00048679602 -0.02917174 0.015650023 -0.042153686
play -0.05186543 0.0047014575 0.091284856 -0.02612895 -0.048835803 0.041624844 0.033436682 0.030127887 -0.012097934 0.046103813 -0.038605623 0.0595371 0.01749588 -0.008937438 0.043625575 -0.049466617
american -0.0589079 -0.0317754 0.056157302 -0.051405896 0.038154192 0.020747421 0.08700648 0.07312773 -0.04885605 -0.10924702 -0.1201401 -0.012993515 0.047857422 0.126193 -0.122553505 -0.10992763
plays 0.010603768 0.05414513 -0.050641816 0.0070732413 -0.014407742 -0.07840865 -0.041244667 -0.050267458 0.009151709 0.03646007 0.06072579 -0.060643308 -0.004768808 -0.017666558 0.06772132 0.0117729455
1 0.0017911646 0.053970367 0.07223494 0.10685791 -0.07556653 0.003026296 -0.042058013 0.056541342 0.06845266 0.0058685057 0.08350685 0.06545988 -0.09405879 -0.005366561 0.08555623 0.0899187
said -0.069180146 -0.056262907 0.021627072 -0.052192364 0.008423218 0.10054136 0.08298883 0.03446093 -0.000407636 0.0068430775 -0.04581579 0.056110166 0.06972913 0.04698797 -0.0047169314 -0.06774985
effects -0.03577918 -0.009744641 -0.0102215465 -0.032528393 0.05145614 -0.012405184 0.039102104 -0.011075298 -0.014008283 -0.016097661 -0.058973026 -0.080693536 0.050952595 -0.0074452553 -0.0022937192 0.022971107
later 0.005355751 -0.030317225 -0.1537441 -0.12268099 0.13780716 0.03418866 0.02647482 -0.09468274 -0.026688028 -0.042596735 -0.0912249 -0.1794016 0.005816348 0.030342264 -0.069236025 -0.09835511
takes 0.03918626 0.08670956 -0.053624827 0.043497372 -0.031864222 -0.0640808 0.001583341 -0.045771755 0.0032484098 0.028522354 0.010194385 -0.050519835 -0.008863099 -0.018621733 -0.013783154 -0.026873622
instead 0.047573093 0.05943922 0.028228665 0.1100924 -0.056729488 -0.07516463 -0.10013053 -0.03523267 0.086621836 0.11151829 0.07572768 -0.0151838865 -0.09542586 -0.068586394 0.10016499 0.06455568
seem 0.09023287 0.10726147 -0.04336558 -0.0069724964 0.0025052512 -0.0497909 -0.11889274 -0.11884983 0.08888996 0.08288717 -0.010488912 -0.020338086 -0.11146685 -0.064871065 0.08216963 0.020236423
beautiful -0.08517059 -0.06393371 -0.03722391 -0.11023196 0.037309196 0.020290155 0.12688655 -0.014387034 -0.16548307 -0.13799186 -0.12831715 -0.068262696 0.065055944 0.07322611 -0.18052512 -0.11056959
john -0.06265518 0.036436006 -0.08585287 -0.03868169 0.06066647 -0.0363836 0.025184155 -0.03769626 -0.02436689 -0.008889855 -0.09052107 -0.046825413 0.024583586 0.0030514349 -0.044996336 -0.0524733
himself -0.047771722 -0.05484104 0.10101544 0.037653204 -0.016429862 0.004409788 -0.016749319 0.0051007895 0.03569894 -0.05163951 -0.03863752 0.07700639 0.026765827 0.00067170174 -0.017219558 0.01013663
version -0.081806555 0.003082715 -0.016648803 -0.05956714 -0.003768586 0.032435473 0.04249207 0.0107938 -0.008093246 0.019135114 -0.10010104 -0.014898935 0.0043379213 -0.0010315079 -0.0071825916 -0.07049034
audience -0.008740563 -0.05667783 0.07012535 -0.02127401 0.042408884 0.016627248 0.050644346 0.02999782 -0.027216304 0.024925157 0.02172523 0.07810186 0.048902247 -0.04431268 -0.035699558 -0.023405464
high -0.0216085 -0.031676333 0.021252971 0.043580264 0.033441246 0.031276945 0.023300767 -0.005688389 -0.0080329245 -0.0047451346 -0.0018310038 -0.01998133 -0.030863723 -0.0006768255 0.04439526 0.007127369
house -0.05654035 -0.044526357 0.17169969 0.023373144 -0.0079015475 0.033024993 -0.026775116 0.10381643 0.06735014 -0.066899575 0.064444534 0.08132189 -0.047475938 0.055075154 -0.024161061 0.0015213678
night 0.06281919 0.02580572 0.061108783 0.13230394 -0.15224221 -0.018696407 -0.088320896 0.019557634 0.118696526 -0.0055978373 0.1031901 0.010985837 -0.1035606 -0.10621282 0.05879791 0.08236244
during 0.05152484 0.07361547 -0.044235695 -0.0009765793 -0.028578978 -0.0692565 -0.002431968 0.010340999 0.03740627 -0.0028784028 0.016227249 -0.042667005 -0.027862797 -0.0146253845 0.07958921 0.024407255
everyone -0.0029280277 0.0033199051 -0.029926928 0.0138118705 -0.06573698 -0.028190982 0.019857598 -0.01890958 -0.03277341 -0.02686736 -0.06183801 0.01666249 0.014653296 -0.020888524 0.020711223 -0.06686522
left 0.11620335 0.13415103 0.04504951 0.1425472 -0.12174356 -0.08386106 -0.15675515 -0.07604094 0.14457496 0.11508998 0.16508034 -0.008162283 -0.13525389 -0.09768957 0.16443749 0.18958199
special -0.065489836 -0.08301331 0.035873022 -0.055911765 0.023024684 0.097703375 0.07580053 0.029811747 -0.036107253 0.009066114 -0.08957678 -0.019736798 0.016901571 0.058306556 -0.06640701 -0.032849375
seeing -0.034255568 -0.018327454 -0.071936786 0.086307324 0.004077279 -0.08539247 -0.03088509 -0.04065086 0.021308629 -0.032014348 -0.025518758 -0.010373891 0.030349495 0.005225818 0.010164036 0.086274706
half 0.10709429 0.052209463 -0.0016236259 0.07705106 -0.09071916 -0.12653455 -0.06368482 -0.067660294 0.11798496 0.08988905 0.12431643 -0.03716021 -0.101751484 -0.06330864 0.062470477 0.15031517
excellent -0.09680601 -0.14867194 0.008122827 -0.041617014 0.08865357 0.071447216 0.13396934 0.13721816 -0.12718128 -0.10793631 -0.14928414 -0.031192703 0.10755538 0.11452119 -0.15136333 -0.08673209
wife 0.0044255205 -0.048180167 0.029334558 0.04788528 0.023603301 0.062305667 0.00080323016 0.01868319 -0.04854904 -0.025605401 -0.02331903 0.012687007 -0.022957029 -0.0068331948 -0.017717134 0.010483525
star -0.04179882 -0.08007607 0.039850146 0.006471984 -0.016392654 -0.004218436 0.07021643 0.021877568 -0.00718743 -0.021809867 -0.03391337 0.0039216545 0.023960246 0.027424613 -0.04617794 -0.016993629
shot -0.030178446 -0.01843222 0.031742245 0.04844595 0.01244799 0.025204506 -0.00408287 0.06085829 -0.03871899 -0.062423073 0.044500113 0.092470564 0.013126376 0.051589683 -0.018339327 -0.0013632607
war -0.004149371 0.040940344 -0.103110366 -0.027360626 0.027218765 -0.08391797 -0.018005632 -0.10846875 -0.005724236 -0.012322908 -0.067854285 -0.046868198 9.612311e-05 0.015032033 -0.020526936 -0.03408769
idea -0.09992111 -0.058069605 -0.084364414 -0.054453544 0.042398196 0.066773124 0.0956313 0.030788438 -0.12015201 -0.009590032 -0.09842958 -0.04087324 0.076696135 0.10561371 -0.12720247 -0.121106416
nice -0.11083831 -0.08272411 0.09309115 -0.10326886 0.020533439 0.06912402 0.069937795 0.13880491 -0.038403656 -0.02315147 -0.11599922 0.054061025 0.09592189 0.11688275 -0.13481124 -0.070821896
black 0.030271485 0.04838752 -0.07081689 -0.04117425 0.06407386 -0.08980455 -0.042727135 -0.12872513 -0.008682783 0.010552552 0.0003309524 -0.184149 -0.03516401 -0.015220169 0.047849964 0.019760735
less 0.0526666 0.035371654 0.03617203 0.093440585 -0.059616342 -0.027674804 0.016923437 0.03252502 0.024547266 0.040948898 0.024277631 -0.021543058 0.007768819 -0.03285449 0.06933555 0.01792421
mind -0.110626176 -0.08089662 0.13407336 -0.1239204 -0.004630833 0.110706255 0.1111773 0.1095158 -0.049697287 -0.048173647 -0.047549102 0.10975289 0.015070633 0.1043197 -0.043896835 -0.038121615
simply -0.033606447 -0.047194544 0.045245823 0.01579256 0.02797297 0.0041305586 -0.015870087 -0.0191008 -0.05231373 -0.028728766 -0.010164693 -0.015249863 -0.015438858 0.0030401954 -0.002997616 0.03819268
read 0.028406639 0.015325351 -0.11633808 -0.018905794 0.03570278 -0.039101586 -0.0682484 -0.09197311 -0.027969 0.047814403 -0.10281991 -0.09001951 -0.054245047 0.0030420597 0.064120494 0.0059174425
second -0.06334988 -0.010618155 0.046634786 0.022556696 -0.0440298 0.03985245 0.0412581 0.111047946 -0.02780817 -0.08125238 0.035653237 0.05945625 -0.010870874 0.05257628 -0.014002526 -0.01899369
else 0.034019276 -0.0061541847 0.066384494 0.09099215 -0.0066056857 -0.009318212 -0.029198315 0.092846416 0.08188722 -0.03493422 0.03496228 0.060038786 -0.03074557 -0.0019975707 -0.01376127 0.060128257
you're 0.06394869 0.053076316 0.07529244 0.09170431 -0.19335309 -0.07837356 -0.015164639 -0.00064664194 0.04581522 0.022630898 0.081999056 0.023956224 -0.053007722 -0.10603967 0.052637476 0.07006705
father 0.023599517 0.04304431 -0.046000425 0.04279831 0.019858522 -0.057316143 -0.040914692 0.059618875 -0.05012591 0.017238498 0.00025313243 -0.010648557 0.038721826 -0.0041110856 0.015384507 0.04835632
fan -0.018559607 0.006047021 -0.05078625 -0.037333697 -0.009993622 -0.014509377 0.034716822 -0.024529085 -0.04966124 0.021797407 -0.045003287 -0.08904253 0.05764145 0.07435018 -0.051542994 -0.013079026
poor 0.07369189 0.03440732 0.041033845 0.00019949715 -0.16719869 0.009499236 0.015271675 0.0031441767 0.034422077 0.043589577 0.054413658 0.053096563 -0.054557826 -0.069560386 0.061556205 0.03822468
help 0.03259734 -0.008131625 -0.017690796 0.06308725 -0.04997056 0.017793758 0.046866097 0.061493788 0.036774453 -0.03575493 0.053445265 0.04035304 0.03785792 -0.046273686 0.05063543 0.015960682
completely 0.031329382 -0.05901625 -0.009656997 -0.010451216 -0.012144579 -0.02298971 0.014440892 0.059637707 -0.012289323 0.0026277346 0.04592895 0.031066356 -0.05345635 0.00814924 0.019510297 0.04431807
death 0.045968145 -0.035760134 -0.054024428 -0.02911963 0.00475655 -0.079110876 -0.021716017 -0.014798155 -0.021491483 0.045723945 -0.0073948274 -0.06300643 -0.01968847 -0.063840896 0.04711028 -0.01859151
3 0.18761843 0.14762275 -0.15462527 0.06827496 -0.102309525 -0.14055885 -0.117301196 -0.17892057 0.0911676 0.14529157 0.03571717 -0.118366726 -0.13720445 -0.19163166 0.103755206 0.12953916
used 0.13533871 0.09551237 -0.00397954 0.12048842 -0.021714708 -0.15652311 -0.1062898 -0.1033452 0.11618441 0.05005336 0.083074614 -0.058959443 -0.058353625 -0.13262627 0.076127626 0.08984882
home -0.0825156 -0.00048616153 0.10111546 0.026018545 0.0055606435 0.037078254 0.015731689 0.060943097 -0.014217087 -0.03523034 -0.041653786 0.04009514 0.04874855 0.037193805 0.0032483228 0.061393566
either 0.096806355 0.1416582 0.045892403 0.11809516 -0.0808663 -0.113289356 -0.113600396 -0.058271002 0.041319907 0.0036231163 0.07223836 -0.0032185544 -0.033550095 -0.08282154 0.1302527 0.06805461
short -0.036686916 -0.062952906 0.08795227 0.015429718 0.030122424 0.103701636 0.027230185 0.056171026 -0.049245074 -0.06228684 0.0009836536 0.111419015 0.061921734 0.074880406 0.0014699143 -0.03394779
line -0.029347701 0.019192193 -0.03714191 0.012199595 -0.060027678 -0.043111287 -0.0057328604 -0.037435643 0.023662968 0.0067464276 -0.08205447 -0.04433013 -0.030429156 0.03868295 -0.056433614 -0.035203576
given 0.016065622 -0.013719847 -0.046229962 -0.0028765227 -0.0012933721 -0.019329758 -0.017229581 -0.045867655 -0.069601856 0.005800042 -0.017929303 -0.05935643 0.029300323 0.03413935 -0.073908806 -0.012815886
men 0.061237805 0.03713702 -0.07178541 0.04766902 -0.073762916 -0.0090131555 -0.07359302 -0.042528864 0.008922142 0.040579412 -0.023805505 -0.025672745 -0.073264755 -0.038994297 0.080667436 0.06641734
top -0.13578007 -0.068291865 0.04991554 -0.11133514 0.060380146 0.076287866 0.08417083 0.04249587 -0.12273033 -0.07044461 -0.12742881 0.027523702 0.09201639 0.11854323 -0.12871122 -0.15897988
dead 0.0776526 0.061714653 -0.07829668 0.091479644 -0.13588281 -0.07139973 -0.07304319 -0.048166122 0.103339806 0.14194055 0.06954367 0.01508502 -0.14860645 -0.10989944 0.095176384 0.10803628
budget 0.11380621 0.08223398 0.1556492 0.1510878 -0.1098655 -0.06848177 -0.047254212 0.044540238 0.15621924 0.08422146 0.16609342 0.005535741 -0.07859007 -0.058540463 0.14937262 0.10360654
try -0.0019163486 0.021488464 0.054906018 0.022802325 -0.021503508 0.037371714 0.03776357 0.072436355 0.046107206 0.030818658 0.015923558 0.054965444 -0.015029471 -0.018827101 0.014827051 0.013167503
performances -0.02653783 -0.03998237 -0.088069744 -0.029996673 0.02988024 -0.03853115 0.050695278 -0.058916986 -0.0844181 -0.0036097947 -0.023455251 -0.059493747 -0.0004927309 0.020271039 -0.07547129 -0.020737868
wrong 0.023954313 0.041243415 0.007911195 -0.03026185 -0.04241122 -0.004911487 -0.028376872 0.03352439 -0.05078948 -0.039992746 -0.018693157 0.02457956 0.004354964 -0.008250726 -0.044471502 0.012834535
classic -0.053308938 -0.10513098 0.024852678 -0.089816175 -0.008826241 -0.006476905 0.08464221 0.03444165 -0.027031036 -0.03484069 -0.07980564 0.08112653 0.109474175 0.10685413 -0.05662687 -0.06658085
boring 0.1457821 0.094360724 0.036890242 0.16948974 -0.12638062 -0.11019061 -0.1129309 -0.072007984 0.07518272 0.07266126 0.057011865 0.00077587843 -0.09012052 -0.068870805 0.12886675 0.104024224
enjoy -0.06475359 -0.029139385 0.01698765 -0.0008578824 0.055163983 -0.021321727 0.057833742 0.09273256 -0.06411113 -0.014693796 -0.027655222 0.013745398 0.0067949938 0.06543592 -0.06614771 -0.0016402627
need 0.044933204 0.07640124 -0.024990244 0.002301777 0.052498598 -0.037149258 -0.032159433 -0.112284094 0.04849196 0.03591869 0.03167628 -0.037587162 0.03179265 -0.015014258 0.07885904 0.030611763
rest 0.091566935 0.021967053 0.042761043 0.095908746 -0.16076784 0.020931298 -0.041680824 0.05333802 0.0788306 0.06542584 0.12912363 0.03928958 -0.08035224 -0.09814889 0.09962481 0.06075999
use -0.018656619 -0.064256154 0.10235461 0.021081688 -0.00086275034 0.055167012 -0.005612741 0.033895906 -0.012522109 -0.03689281 0.05019674 0.08931195 0.032233663 0.014860732 0.015096535 -0.021455932
kids -0.04273562 0.008124291 0.09475739 0.030668013 0.026079867 0.04915569 -0.0033903527 0.07012081 -0.007862192 -0.058874186 0.00493339 -0.011860791 0.021589162 0.038180128 -0.016990522 -0.041149087
hollywood 0.091893815 0.03026204 -0.13698176 0.050036967 -0.015854342 -0.039544895 -0.036024243 -0.100543566 0.046628136 0.02030527 0.07302756 -0.084614985 -0.09344131 -0.048079267 0.08087477 0.049166884
low -0.06860513 -0.023905538 0.09831795 0.073103175 -0.018879475 0.060460318 0.055913404 0.13939333 0.0029915632 -0.023901694 0.047160115 0.07737077 0.0007305633 0.0006718047 -0.033182893 0.015493812
production -0.078628115 -0.032710608 0.05135842 -0.062520914 -0.012451385 0.07798294 0.011720206 0.027492566 -0.07060136 -0.014844304 -0.0057247425 -0.04518934 0.018398767 0.042807933 -0.017707398 -0.01971437
until 0.039748214 0.015624669 0.08195734 0.04965285 -0.03498767 0.028264513 -0.012737743 -0.023046136 0.04272192 -0.03262334 0.04158123 0.028552026 -0.018517984 0.022986969 0.01185608 0.012559874
along -0.069878295 -0.016801475 -0.06629429 -0.035485223 0.039246347 -0.016227638 0.007884686 -0.032156855 -0.079573445 -0.034759734 -0.053181212 -0.019838518 0.03787167 0.00836379 -0.10889409 -0.05780192
full 0.07373661 0.041710228 0.11478289 0.11259935 -0.16425557 -0.091738835 -0.09597122 0.08595546 0.07787367 0.0049825865 0.15784761 0.06519768 -0.04393934 -0.04241523 0.11207399 0.13048974
friends 0.013776237 0.0959465 0.053336665 0.04295627 -0.013922446 -0.0924144 -0.09723183 0.017635984 0.082176 0.028796853 0.05498215 0.062002912 -0.004380034 -0.028777428 0.09091747 0.11111493
camera -0.03169705 -0.040280376 0.088991724 0.056678113 -0.033554785 -0.02332001 0.004676031 0.037838235 -0.004650587 0.019916294 -0.0027112407 0.027240112 -0.022947652 0.018075062 -0.054066066 0.02701193
truly 0.09524279 0.051898826 -0.050600383 0.06378511 -0.04510291 -0.088351965 -0.06508615 -0.10909562 0.08384505 0.10889727 -0.050261013 -0.07996011 -0.100385986 -0.045368116 0.080045454 0.021243846
women 0.12146657 0.07285176 -0.036984954 0.115612954 -0.07560103 -0.11674957 -0.07647882 -0.121969834 0.11888392 0.08748823 0.121384494 -0.07019632 -0.08867329 -0.09441384 0.16871816 0.12850367
awful 0.05234457 0.13180982 0.028929722 0.14539918 -0.08655495 -0.039973 -0.104455955 -0.007121872 0.061271075 0.098647416 0.10555277 0.029713638 -0.082614854 -0.12060789 0.051635552 0.08327632
video 0.07894088 0.07617705 0.117870465 0.11321238 -0.06140859 -0.071789145 -0.034261975 0.032076392 0.067953624 0.009539487 0.07427153 0.12614816 -0.024729665 -0.06915271 0.044709034 0.08875609
next -0.023861805 0.010695338 -0.014222176 0.0039050225 -0.027053762 0.05078678 0.014976677 0.02814957 0.018579349 -0.059792407 -0.018785855 0.015926313 -0.034047537 0.025099631 -0.041183192 -0.01325979
tell 0.057870638 0.11265008 -0.028602168 0.11551065 -0.13405643 -0.054277506 -0.045144103 -0.058681197 0.07415489 0.095155366 0.071027845 -0.05453894 -0.07589695 -0.09421585 0.08605775 0.10927055
remember 0.068741314 0.043889657 0.039071742 0.0073026987 -0.049545184 0.019106904 -0.027798148 0.0094295675 0.029820142 0.0015838568 0.03445036 0.05731747 -0.08172913 -0.016471675 -0.022373898 0.028931778
couple -0.010152596 -0.020057194 0.05899423 -0.0011627555 -0.02445189 0.005640957 0.060025927 0.101478726 0.01607292 -0.07078598 0.030502295 0.07704063 0.05372353 -0.008325 0.008035949 -0.0673007
stupid 0.11364673 0.037914377 -0.0038040965 0.059854932 -0.071664125 -0.032208633 -0.080170654 -0.04387255 0.032109212 0.10795176 0.10459098 -0.036117386 -0.0516517 -0.08220422 0.040858127 0.059542086
start -0.011631176 -0.008721398 -0.10716822 -0.007854706 0.017505152 0.025122138 -0.026183078 -0.020288501 0.019583 0.016196031 -0.016364912 -0.034066815 -0.034614146 0.051162876 -0.019340068 -0.034638032
stars 0.07462235 0.08221275 -0.030979097 0.11662869 -0.059456535 -0.039263684 -0.10112304 -0.029176908 0.104119465 0.052531086 0.025194993 -0.015910028 -0.0031775972 -0.07205384 0.060842637 0.049392
perhaps -0.037291322 -0.030129941 0.016320527 0.013405346 -0.076624185 0.059067342 -0.020810084 -0.010371011 0.0076414365 -0.044733677 -0.008751522 0.022187572 0.016943814 -0.0071878503 0.016048482 -0.0043593654
sex -0.042444177 -0.056507777 0.095900066 -0.014112041 -0.022404667 -0.009548916 0.08417756 0.008563604 0.003773729 -0.010901595 0.014882303 0.02294327 0.033219367 0.08655752 -0.038347878 -0.027354708
mean 0.052541092 0.10049821 -0.026084816 0.10109126 -0.05012478 -0.10117808 -0.120732225 -0.08444084 0.049815252 0.029034737 0.017973294 -0.08695838 -0.092932746 -0.07940669 0.05362988 0.08554547
came 0.057810735 0.0433797 0.015476817 0.06306019 -0.08647173 -0.001829043 -0.054390557 -0.016581548 0.05025143 0.038707837 0.09955177 0.08167181 0.003412065 -0.05175709 0.05511624 0.08687489
recommend 0.0039621745 0.00966928 -0.06007621 0.027077958 -0.09034614 -0.05863699 0.030243242 0.0065430487 -0.012139285 0.042405378 0.010973271 0.03479624 0.0013208953 -0.008538814 -0.044148818 -0.009480284
let 0.14801264 0.08186397 0.08339015 0.1991787 -0.12269838 -0.03212051 -0.076917745 0.037139993 0.09653169 0.08685759 0.19677188 0.0974241 -0.12767111 -0.06936044 0.0984427 0.18355364
moments 0.117955215 0.0391155 0.041896492 0.14691184 -0.0930476 -0.10500177 -0.106543906 -0.00298164 0.09867923 0.04361573 0.094976634 -0.057160497 -0.030838063 -0.12334277 0.12825665 0.07110805
wonderful -0.11427746 -0.085213915 0.051882125 -0.10600959 0.02268221 0.103218794 0.11046596 0.028630307 -0.0808893 -0.012489755 -0.07968629 0.06973531 0.079762444 0.06663544 -0.03882314 -0.060059663
episode 0.06482722 0.09010224 -0.032362707 0.028388424 -0.041871652 -0.0508447 -0.017662961 -0.035345927 0.04113089 0.03895068 0.038871136 -0.068407826 -0.077605456 -0.106465116 0.10922911 0.08601637
understand 0.07203946 0.0059070094 0.07437854 0.086696304 -0.083744146 -0.017807394 -0.062349368 0.020933643 0.07910322 0.023649678 0.04878653 0.069165215 0.008216666 -0.03862578 0.03034053 0.011086194
small 0.12331772 0.12067885 0.069985904 0.06077011 -0.07518049 -0.04175048 -0.079410665 -0.009798549 0.12222834 0.07530976 0.0718566 -0.03998943 -0.09510347 -0.11237557 0.109811 0.07782375
face -0.03590135 -0.023440458 -0.01318801 -0.021272885 0.07698572 -0.0066465437 0.027280713 0.04989638 -0.050088454 -0.04825931 -0.04761301 0.067266926 0.09498411 0.0809808 -0.05928699 -0.019527294
terrible 0.11665037 0.12977602 0.013109209 0.07798798 -0.07477451 -0.11909878 -0.13769321 -0.03911974 0.12347702 0.10506325 0.060384665 0.0663702 -0.15917015 -0.065621175 0.15079527 0.07157464
playing -0.04070836 -0.057360623 -0.055054158 -0.122237794 0.09533845 0.07201789 0.11270407 -0.009730947 -0.061085247 -0.015527236 -0.091059074 -0.094986975 0.016101174 0.074210286 -0.09702369 -0.09417223
school -0.0019244538 0.06611555 -0.026262209 0.024949161 -0.03403427 -0.03017376 -0.042639755 -0.047085315 0.0029775652 -0.030579308 -0.0065142093 0.027938733 0.007309621 -0.07361392 0.071808815 5.9179278e-05
getting -0.024590375 -0.03480084 0.057938263 -0.05357123 -0.020374035 0.08110222 0.04175639 0.021834826 -0.0019033758 -0.03262937 -0.04348228 -0.053488497 0.03962081 0.079546265 -0.0043510273 -0.06572999
written 0.10911189 0.12218746 -0.05020837 0.13606372 -0.12436859 -0.12312458 -0.14255215 -0.044171423 0.14048474 0.06491295 0.093165785 0.0099972915 -0.053263903 -0.05691012 0.09522666 0.10092719
doing -0.011038209 -0.0431209 -0.060428172 -0.027568776 -0.033881973 -0.027879052 0.0074330033 0.0011651837 0.027076023 -0.018469324 -0.037292987 -0.007503214 -0.055265326 -0.02548448 -0.010727616 0.028641013
often -0.056593236 -0.018634146 0.026246248 0.006617703 -0.040687826 0.013279895 0.049956672 -0.0010800518 0.036096208 0.009422156 -0.015375097 0.035537217 0.013986404 0.037483424 -0.01782899 0.0029065828
keep 0.024805387 0.06852464 -0.03761363 0.014840373 -0.04262187 -0.0068230345 0.0050674244 -0.008557541 0.020363914 0.06587997 0.05118475 -0.0034760006 -0.024234181 -0.011335677 0.065687776 0.012520572
early 0.023998369 -0.033611123 -0.0029437167 -0.054885134 0.010990063 0.0020294155 -0.03710968 0.05080907 -0.05338613 0.015256403 -0.00946401 -0.012055009 -0.024358567 -0.0037412064 -0.022825522 0.025245065
name 0.14112203 0.12677892 0.008312791 0.17099935 -0.1843669 -0.16218255 -0.13173893 -0.07299545 0.08507295 0.07263455 0.13676092 -0.014519933 -0.11969275 -0.14808276 0.12725116 0.18511848
perfect -0.023594113 0.072885044 -0.019709691 -0.019794503 -0.1477345 0.0038890773 -0.090429895 0.040229317 -0.02998463 -0.02048381 0.04134223 -0.026822664 -0.022309253 0.007683503 0.0065065282 -0.024116646
style -0.041785136 -0.052344594 0.14618418 0.08648534 -0.040469773 0.014026318 0.06556073 0.14952552 0.0701546 -0.019844232 0.090986386 0.13768835 0.00812196 -0.047566544 0.02384131 0.07893055
human -0.037611946 0.030732626 0.002934216 -0.045439046 0.04547232 -0.051317308 0.056121595 -0.06969663 -0.007096021 0.023773026 -0.022306383 -0.058075976 0.042754617 0.013680591 -0.027689908 -0.026285829
definitely -0.05732818 -0.07663515 0.016032496 -0.06064727 -0.030996518 0.058833275 0.08507619 -0.01634278 -0.09718151 -0.06669695 -0.119608514 -0.082311116 0.05524881 0.08539397 -0.067367025 -0.0720745
gives -0.050190583 -0.08784462 0.08029622 -0.0777969 0.04419793 0.06690031 0.04121326 0.111096114 -0.059896156 -0.08560498 -0.070589006 0.016650906 0.05378123 0.03599642 -0.023253866 -0.080023535
others 0.068243474 0.01231365 -0.09039109 0.001127781 -0.03299528 -0.005764662 -0.015346267 -0.06468686 -0.006638362 0.0704869 -0.022984665 -0.14717838 -0.05265918 -0.037079226 0.0919358 -0.0009884629
itself 0.074130945 0.09897648 -0.027086973 0.13847053 -0.06906927 -0.01572921 -0.12549561 -0.0010392601 0.115411244 0.11506829 0.034846943 -0.013745729 -0.08986239 -0.111510225 0.08649323 0.1162775
lines 0.026366891 0.06649846 -0.04141419 0.036624465 -0.006525098 -0.0050122323 -0.07718794 0.0127125075 0.037125282 0.080032215 -0.008193833 -0.020348236 -0.054003652 -0.033232242 0.08031402 -0.020096224
live -0.01418481 -0.05218351 0.035741944 -0.013008204 -0.027129345 -0.01055205 0.02914644 -0.05686349 0.0014110787 0.0028357352 -0.053464 -0.052174162 -0.03837068 -0.0024480075 -0.05606794 -0.030892115
become -0.049721595 -0.007324214 0.011990382 -0.053253543 0.02065932 0.051579315 0.019443894 -0.022513714 -0.044475153 0.014996013 -0.048704322 0.068962805 0.0016781802 0.07251856 -0.038751595 -0.04212192
dialogue 0.068864666 -0.0031513132 0.0629953 0.051264375 -0.102619566 -0.01114135 -0.053531162 -0.017522313 0.023274602 0.07973133 0.06436957 -0.00401471 -0.061242223 0.017114453 -0.0296836 -0.008530855
person -0.03227906 -0.040183865 0.020069292 0.049342442 -0.08525047 -0.0021665767 -0.052270956 0.012400022 -0.014411505 0.028402226 0.019132253 -0.017144876 -0.00045706079 -0.05410109 -0.018186118 0.0425346
lost 0.005587838 -0.03223087 0.042301357 0.12149505 -0.084485576 -0.0005645923 -0.07230672 0.043155286 0.016408758 -0.020871246 0.06868509 0.039062783 -0.058281712 -0.041504327 0.10325558 0.049471296
finally 0.0018657873 -0.021897694 0.040751897 0.014772119 -0.037851047 0.038054228 0.013826631 -0.0035805977 -0.013867568 0.0068255914 0.0047546183 0.00804594 -0.011843237 -0.01586824 0.0064167203 -0.057528112
piece 0.11770358 0.19634217 -0.086789064 0.17208514 -0.053179514 -0.18794715 -0.19762328 -0.13036051 0.1261628 0.11272979 0.080013394 -0.060119107 -0.120789304 -0.20672914 0.13721566 0.17006586
head 0.10446151 0.09929387 -0.17466325 0.06431895 -0.028475707 -0.12873106 -0.16544843 -0.14416826 0.13218659 0.07265446 0.062611416 -0.1112528 -0.1364286 -0.09291396 0.15535039 0.14873701
case 0.06694282 0.11821063 -0.016063817 0.108111165 0.019653294 -0.05589639 -0.05811035 -0.11559317 0.110352665 0.075053945 0.05754214 -0.10540485 -0.13266979 -0.07884337 0.12189901 0.12433081
felt -0.024815204 -0.08239658 0.019373275 -0.050867844 -0.015378135 0.06282423 -0.0065098205 0.11676817 -0.043275394 0.012877937 -0.04560596 0.056147367 -0.010731939 0.04100662 -0.032853857 -0.055758104
yes -0.05672148 0.047581673 -0.043921817 -0.041583594 -0.025220245 0.012820241 0.0077083725 -0.0070121884 -0.043490585 -0.02037903 0.0017617635 0.024349824 -0.013021176 0.011477266 -0.03363894 -0.057392526
liked -0.04462311 -0.028963262 -0.019020127 -0.066284895 0.047432996 0.030319853 -0.020410545 -0.06898932 -0.008945706 0.010674615 -0.033528928 -0.03855339 0.021935046 -0.001069409 -0.009533065 -0.098069645
supposed 0.14460912 0.12535682 0.014134374 0.17319678 -0.14604433 -0.119687416 -0.16865765 -0.046896096 0.09807287 0.12964605 0.15536645 -0.08779722 -0.16030502 -0.15284115 0.10670747 0.17477122
title 0.059101064 0.13500385 0.060103938 0.19918627 -0.06663892 -0.10997453 -0.061148174 0.03540871 0.13109969 0.059059642 0.19916676 0.008396387 -0.05946827 -0.15226096 0.12193127 0.11905007
couldn't 0.094879575 0.10364873 -0.03572751 0.1463791 -0.11112994 -0.058004763 -0.14866121 -0.034881737 0.16335803 0.10724087 0.088241644 -0.020548511 -0.0977345 -0.17521323 0.10734533 0.06618441
absolutely 0.04632139 0.019525599 0.003901545 -0.0011669798 -0.03383081 -0.017151197 -0.000918978 -0.022065379 0.057778094 0.042781264 0.036948282 0.043351557 -0.011230388 -0.031882297 0.027004747 0.009300863
white 0.003749142 0.042369165 0.00984215 0.06252295 -0.039572984 -0.035089646 -0.026300438 0.025359554 0.10116352 0.10267633 0.08203763 -0.07440321 -0.007805013 -0.03021521 0.015744507 0.034196783
against -0.04342866 -0.05077552 -0.062789634 -0.03414112 -0.011397741 0.054503404 0.029117456 -0.026388315 -0.08807245 -0.04673361 -0.06946999 0.022429764 0.068867035 0.10202929 -0.11911595 -0.05167147
boy -0.06837555 -0.017175477 0.036731526 0.011473993 0.0010288791 0.06293763 0.059582487 0.07581736 -0.058377374 -0.07844852 -0.0541934 0.06971112 -0.01153779 0.011968376 -0.059974752 -0.037185483
picture -0.09431974 -0.035693787 -0.027582964 -0.08477476 -0.008147061 0.08098628 0.09859215 -0.0412236 -0.030244613 0.0062663206 -0.14211467 -0.010353905 0.019731697 0.05412804 -0.11803917 -0.053703077
sort -0.05095218 -0.057966493 -0.035132386 -0.08800945 -0.0012912827 0.09218336 0.08441215 0.01840391 -0.09590696 -0.04470426 -0.10787207 -0.014414197 0.051179655 0.11013976 -0.08426656 -0.056668617
worse 0.011605229 -0.0067361817 0.024307678 0.03366408 -0.09251241 -0.035513934 -0.024340546 0.0042836554 0.0026803776 0.026159374 0.09017035 0.054145798 -0.00016568272 0.013508295 0.03925486 0.057970174
certainly -0.096397616 0.0015701444 0.07602694 -0.07568061 0.019454982 -0.021605514 0.031778123 0.0689213 -0.00051553285 -0.07405674 -0.06968599 -0.04877135 0.001743664 0.00025880814 -0.056954384 -0.046269674
went 0.057625853 0.08063884 -0.07288593 0.078858316 0.03127277 -0.07124767 -0.03989415 -0.041574378 0.08979577 0.06495758 0.052312203 -0.0754908 -0.024507482 -0.025360508 0.029152188 0.064231746
entire 0.08429604 0.121166006 0.11762526 0.22240391 -0.12209562 0.032821268 -0.10689978 0.037264034 0.17040867 0.08341166 0.24414824 0.1130742 -0.14582129 -0.092576 0.19778802 0.19289297
waste 0.1640699 0.14041966 -0.044126444 0.22872679 -0.15028974 -0.20669746 -0.19991891 -0.12410611 0.18907516 0.11360013 0.20771834 -0.1312597 -0.11627324 -0.18563786 0.20475496 0.27678335
cinema 0.028143814 0.023634318 -0.07554525 0.06384437 -0.077767126 -0.06876073 -0.049169075 -0.044674817 0.04065361 0.032363977 -0.05759532 -0.039880525 -0.10430173 -0.055940546 0.04757078 0.061039343
problem 0.016787281 -0.0015047278 -0.0247727 -0.0123047205 0.010453468 0.01879075 -0.05983605 0.011013931 -0.036301926 0.028710118 -0.013321228 0.00023363534 -0.026844084 0.006430325 -0.035088554 -0.006978724
hope 0.0070488974 0.029275674 -0.05655298 0.07603427 -0.0872212 -0.058158293 -0.097164445 -0.031769194 0.04637858 0.07318886 0.042978007 0.036330123 -0.0858101 -0.016594183 -0.0072235265 -0.006788639
entertaining 0.014642033 0.05782297 -0.08397779 0.009588445 -0.035156623 -0.11473093 -0.028434047 -0.057123885 0.062775426 -0.0011113439 0.020581994 -0.057874817 0.007383467 -0.07952868 0.019779686 0.07042383
she's 0.088192254 0.087845005 0.018914279 0.033266686 0.017160034 -0.061271295 -0.08475253 -0.034984667 0.07212689 0.0791635 0.018489283 -0.032387275 -0.03985061 -0.073431 0.030374184 0.07229886
mr 0.03349657 0.017920287 -0.05314795 -0.024985012 -0.07674137 -0.033830754 -0.015250463 -0.08862847 -0.02901143 0.033420395 0.032802805 -0.043676954 0.030949473 -0.021414174 0.03707008 0.0034743727
overall 0.047999036 0.053428955 0.050695445 0.022279793 -0.14327466 -0.07731738 -0.015701221 0.048968934 0.096883625 0.011925009 0.0731462 0.030156251 -0.02870313 -0.011125458 0.053033613 0.09127856
evil 0.065678105 0.092800885 -0.015200237 0.04119727 -0.04633367 -0.06346108 -0.05965212 -0.03261283 0.011712527 0.10082737 0.041861534 -0.015094036 -0.06292879 0.010842952 -0.016782908 0.015547542
called -0.004202037 0.07723273 -0.038047355 0.06147915 0.00051763153 -0.020092748 -0.08892438 -0.09565051 0.0766387 0.03075655 0.09853592 -0.0515474 -0.012274675 -0.012658721 0.08521685 0.054679293
loved 0.07641064 0.06462804 -0.06804294 0.034968615 -0.04370454 -0.12291222 -0.062684916 -0.10774714 0.046100996 0.07874273 0.05171169 -0.059690088 -0.085832655 -0.028186126 0.068453714 0.022784261
based 0.051726557 0.09237141 -0.016592104 0.10332521 -0.010317737 -0.10710798 -0.13263012 -0.09576815 0.09817317 0.14021716 0.091631725 -0.100076556 -0.09984909 -0.14977586 0.09332028 0.03285709
oh 0.10085028 0.08693117 0.1142334 0.09710528 -0.12500863 -0.034149315 -0.055536903 0.048468143 0.13606295 0.048372444 0.14212602 -0.0027020434 -0.08469129 -0.032342475 0.0598404 0.103669755
several 0.08812001 0.02706054 -0.10784624 0.0034893882 -0.06014764 -0.07070703 -0.034494974 -0.13621685 0.039924003 0.09844729 0.046914928 -0.1095008 -0.036200844 -0.07528487 0.019571364 0.044460543
fans 0.07624097 0.06615725 -0.05210586 -0.05627515 0.024145538 -0.0799727 -0.0135930395 -0.061059933 0.07326364 0.069874145 -0.081713736 -0.060836274 -0.08245289 -0.07731519 -0.04117241 -0.06121513
mother -0.008542589 0.0051341318 0.14213482 0.057535406 -0.043685842 -0.051027052 -0.020166367 0.064743675 0.08097567 0.013324592 0.012439649 -0.032648653 0.007214513 -0.041543312 0.012825788 0.10706895
drama 0.031311743 -0.020961924 -0.046214495 0.07091041 -0.05914963 -0.045124255 0.024362668 -0.011964511 0.032944515 0.0048192237 -0.040098336 0.050180912 0.015146219 -0.067088984 -0.031651087 0.019675259
beginning -0.003769495 0.03382465 -0.01571555 -0.029406007 -0.024501776 -0.040658966 0.029544609 -0.07688928 -0.011080839 0.0061116945 -0.019743826 0.00814626 -0.0041860947 0.02792752 0.034307238 -0.010705298
killer 0.0488019 0.0033735516 0.029233515 0.021955468 0.020480508 -0.051470783 -0.031508964 0.021759866 0.045414172 0.071613066 0.10070605 -0.044068508 -0.018067524 -0.08141535 0.096094094 0.095275514
lives 0.07049819 0.14443657 -0.07951975 0.106055364 -0.11156931 -0.07945648 -0.14003085 -0.09500044 0.10453883 0.14391856 0.073816024 0.034954492 -0.094694145 -0.12881635 0.12288694 0.0883284
5 -0.07759023 -0.029915664 0.005626883 0.020193415 0.039025612 -0.05671182 0.008782729 0.052151307 0.024907364 -0.014233594 -0.036587793 -0.019756498 0.05467366 0.04004582 -0.014763358 -0.07938539
direction -0.008978097 0.052777894 -0.04225657 0.059729647 -0.084834486 -0.07367415 -0.07269896 -0.054941207 0.045778412 -0.005041508 -0.039831374 -0.013805038 -0.0919625 -0.061644204 0.06728414 0.025527148
care 0.07175005 0.06524411 -0.007851499 0.08963758 -0.065083615 -0.011058424 -0.068761736 0.018419333 0.1025663 0.0866523 0.081388295 -0.036627494 -0.107436754 -0.0783662 0.067424536 0.10592966
already -0.027920386 0.02229242 -0.012910155 0.025214436 0.08776886 0.01631803 0.032049026 0.017409626 -0.008897002 -0.04761887 -0.02529647 -0.012136733 0.033138834 0.021003714 0.025511522 0.0029004058
becomes -0.038182188 -0.029689556 -0.011407154 -0.0042078965 0.0007106118 -0.01926465 0.017143166 -0.0090504885 -0.0005560862 0.01705368 -0.046006724 0.060788095 -0.015683413 -0.001375422 -0.08005309 -0.03420084
laugh 0.14218347 0.0569387 0.11456694 0.1448287 -0.112057075 -0.044682816 -0.0674213 0.03898568 0.15941076 0.10449461 0.13002007 0.025096478 -0.15702583 -0.08417793 0.0893683 0.09169562
example -0.04470279 -0.051749516 0.00656735 -0.009230334 -0.069994584 0.010670024 -0.017307596 -9.310612e-05 -0.04153981 0.03409677 -0.007781801 0.088918895 0.040345386 -0.013890099 0.0072923307 0.0114047
friend -0.1208847 -0.10656784 -0.030645132 -0.08638325 0.050898448 0.02157125 0.03754611 0.058594815 -0.10875599 -0.050938398 -0.10506034 0.033618566 0.04206093 0.12770502 -0.10126168 -0.10825293
dark -0.05506418 0.02319786 -0.051014688 -0.023020316 -0.023385948 -0.017015833 0.043243986 0.012210304 0.0046133683 0.027450174 0.002064276 -0.0044621006 -0.02352574 0.045937274 0.022138335 -0.024333933
despite -0.019187378 0.022448016 -0.13985913 -0.037341677 0.025705725 -0.016943242 -0.04405467 -0.07458309 -0.014113896 0.040554296 -0.0437009 -0.06881202 0.014253853 0.00030104045 -0.020939227 -0.02886039
under -0.070117205 -0.06729379 0.046697017 -0.0013752551 0.023336086 0.061679885 0.083606675 0.045144945 0.037923876 -0.057942197 -0.004773531 0.025743684 0.044870585 0.034584064 -0.04221897 0.017695384
seemed -0.061008338 -0.039770585 -0.021775581 -0.097231306 0.090283245 -0.025697019 -0.017788408 -0.0027742381 -0.031161847 -0.010034833 -0.09751374 -0.04813371 0.03703376 -0.00236047 -0.005988207 -0.101954706
throughout 0.098043956 0.044136845 -0.006260378 0.046579786 -0.032138895 0.003039598 -0.031906627 -0.0033737067 0.113223225 0.024075035 0.043162707 -0.004641932 -0.100038044 -0.012618708 0.10437686 0.077517904
4 0.06209636 0.06765691 -0.10555919 0.039827827 -0.056359358 -0.082756974 -0.061934017 -0.059458695 0.113738544 0.06541377 -0.075112686 -0.0412015 -0.11435701 -0.096240886 0.1225502 0.08722156
turn 0.12101872 0.13718082 0.002223014 0.052987844 -0.09164518 -0.12438619 -0.10505294 -0.054905515 0.10647258 0.12225003 0.07052389 -0.060676433 -0.10754151 -0.11013265 0.06867407 0.05908983
unfortunately 0.019462362 0.012168466 0.118231654 0.062980644 -0.04560167 -0.01101845 0.015839444 0.053686704 0.025228033 0.01305955 0.039019063 0.07470613 -0.060392383 0.0035734586 0.023700586 0.01951332
wanted 0.029518416 -0.041305725 -0.102348134 0.00069038366 0.011244638 -0.028534355 -0.04279323 -0.043975122 -0.020348057 0.008433486 -0.08751589 -0.085368015 0.07434695 -0.036871683 -0.031102002 0.024489932
i'd -0.07087738 -0.0016318404 -0.031854033 -0.09245988 0.05289165 0.06328715 0.041012477 0.060040213 -0.115502656 -0.03484857 -0.1101199 0.06988041 0.031206714 0.101586334 -0.046913438 -0.11565487
 0.06931206 0.008926045 -0.0068305214 0.07376713 -0.056556903 -0.07714942 0.011500625 -0.02431776 0.063282736 0.08252557 0.00514195 -0.04029841 -0.06539263 -0.045515727 0.02373036 0.005015779
children -0.046794135 0.003070866 0.030450542 -0.041906565 0.016859634 -0.015155329 0.053502414 -0.013756674 -0.057611495 -0.06038187 0.0057407934 0.046452634 0.01902584 0.06055955 -0.038454626 -0.017714413
final -0.056299884 -0.08737336 0.0016851512 -0.122689836 0.003945604 0.009126612 0.03296595 -0.008242523 -0.024155961 -0.028440198 -0.10640683 -0.008247429 0.031643126 0.015254702 -0.09302997 -0.07673647
fine -0.12224482 -0.11166739 -0.018514505 -0.08841082 0.07762856 0.1094145 0.142379 0.12354738 -0.09497271 -0.10996428 -0.14512517 -0.058779914 0.07103967 0.0982654 -0.11757664 -0.1156738
history 0.03874889 0.061574936 -0.05261223 0.03687613 -0.060774792 -0.061364174 -0.025191395 -0.05462173 0.0814938 0.0088351825 -0.0456136 -0.06272881 -0.041476138 -0.029947251 0.055750977 0.04399624
amazing -0.03694603 -0.0055739507 0.02591767 -0.029100228 -0.0028803875 -0.051766828 0.010657429 -0.007485637 -0.05523428 -0.038853657 0.0013122561 0.045369267 -0.021085659 0.047523484 -0.026262544 -0.051257703
sound -0.0044200667 -0.018091995 0.058746964 0.036666874 0.046766903 0.0761989 0.014454639 0.061067335 -0.044190682 -0.101140425 -0.003044621 0.10481059 0.098299645 0.0053295325 0.0074824053 0.0077799303
guess 0.1150812 0.08318307 -0.10610048 0.14473689 -0.08298811 -0.11501803 -0.15930885 -0.120092824 0.10451533 0.11869027 0.0595211 -0.03977828 -0.16911373 -0.10202894 0.07887955 0.083057165
heart -0.068979055 -0.122683436 0.081464045 -0.10998034 0.02425389 0.10815155 0.100061506 0.068375036 -0.08128578 -0.041883532 -0.06947559 0.01672752 0.1053741 0.1359563 -0.0663842 -0.1159688
totally 0.046219647 0.07459285 0.16762498 0.19911899 -0.1452197 -0.043833297 -0.13513514 0.057578355 0.18936181 0.10443564 0.18896797 0.055791005 -0.10788703 -0.13335226 0.13151658 0.19251932
lead -0.060266566 0.013429737 -0.059792444 -0.059408937 0.04053837 -0.022230994 -0.024758637 0.0068457033 -0.05221234 0.028521424 -0.004765108 -0.0057550333 0.04520242 0.03358659 0.025128141 0.028764809
humor 0.0137765985 0.0048037968 0.086342454 -0.0017560491 -0.06510467 0.021667337 0.012806307 0.039426893 0.00879465 0.040954284 -0.030038234 0.0846442 -0.018592244 -0.022952529 0.03522688 0.05544011
writing -0.009457085 0.0145992255 0.10360383 0.05838747 -0.13696682 -0.026513407 -0.027993603 0.1284646 0.03037738 -0.012575442 0.11936066 0.112111755 -0.06808124 0.02565277 -0.008422865 0.058258727
michael -0.07397346 -0.06551847 -0.09290168 -0.156094 0.03897395 0.052222837 0.07060144 -0.063274026 -0.11156639 -0.06797746 -0.14125443 -0.10305358 0.04170044 0.07041948 -0.14896685 -0.124937296
quality 0.06646646 -0.04582039 0.05815791 0.08421442 -0.032521136 -0.021977473 0.01146265 0.0065927273 0.07082956 0.029333986 0.08747068 -0.0058508627 -0.006292531 -0.011648659 0.02039314 0.1420171
you'll 0.021540856 0.086568564 0.05890514 0.14058468 -0.12442673 -0.01464714 -0.10346079 -0.006835824 0.13195176 0.068192944 0.11020589 0.016545177 -0.06653504 -0.04725256 0.08323178 0.06870558
close -0.12795514 -0.111674525 0.06712052 -0.047707412 0.04722372 0.11802399 0.14813715 0.095971376 -0.056345485 -0.07748717 -0.13581075 0.09674969 0.0053076376 0.13758355 -0.13402872 -0.05360242
son 0.029386599 0.023614952 -0.04498846 0.03306378 -0.018970504 -0.02834125 0.038091782 0.07489711 -0.04711211 -0.0034791925 0.019571103 0.03345943 -0.011504328 -0.04007928 -0.024732748 -0.035091568
guys -0.058138356 -0.061227746 -0.05656121 -0.10204769 0.051734153 -0.018783053 0.0794565 -0.012461303 -0.07835186 0.02783013 -0.10696462 -0.101189025 0.028384797 0.083257906 -0.012842218 -0.059896126
wants -0.0121395 0.042168573 0.024206014 0.024489677 -0.08629046 -0.025291368 -0.027582612 0.0024937198 0.015532786 0.06621484 0.060765777 0.06459309 0.019090539 -0.0052830135 0.0586491 0.007998694
works -0.08694111 -0.10298757 0.014949147 -0.050937384 0.024343548 -0.015231102 0.02771082 0.022777457 -0.010038099 -0.0292948 -0.07146896 -0.030280575 0.10318283 0.0775669 -0.03376916 -0.059484188
behind 0.06297086 0.111320175 -0.12428651 -0.014308264 -0.045739383 -0.06446262 -0.059066277 -0.118073866 0.030261079 0.041903526 0.048131585 -0.10445972 -0.013770681 -0.0337057 0.004522422 0.060644723
tries 0.08176372 0.07994679 0.10944632 0.05708773 -0.048265256 -0.07895593 -0.014607627 0.0392086 0.08864132 0.06797819 0.050563026 0.008959484 -0.055429853 -0.09682854 0.09302833 0.09892249
art -0.002504315 0.048556164 -0.06781375 0.014849278 0.02133882 -0.020101724 -0.07324701 -0.07593245 -0.022376196 0.06384787 -0.05819508 -0.12738381 -0.02485099 -0.049424753 0.059640344 -0.019448776
side -0.02438918 0.036167644 -0.049357355 -0.018173499 0.0141648315 -0.010709082 -0.046901446 -0.04008639 -0.025210498 0.042323977 -0.035926964 -0.034740217 0.024083376 0.010981325 0.051403526 0.031718332
game 0.057679348 0.08300425 -0.091905504 0.020199854 -0.04091009 -0.077961594 -0.10033755 -0.11299324 0.0051600584 0.11588088 0.060133945 -0.10524394 -0.046945132 -0.02133163 0.045542773 0.08935193
past 0.029004516 0.019678762 -0.08112867 0.06270914 -0.03003372 -0.045298032 -0.01428012 -0.010108436 0.03846577 0.07988906 -0.02260284 0.01356542 -0.025700985 -0.022707855 0.017510822 0.0017607957
able -0.06084141 -0.029184973 -0.08926463 -0.103002794 0.0119636245 0.09122478 0.08559675 0.044289093 -0.047613174 -0.046769474 -0.037124857 0.007341481 0.04699376 0.021001725 -0.042253975 -0.073265634
